tree
version=v4
num_class=1
num_tree_per_iteration=1
label_index=0
max_feature_idx=24
objective=regression
feature_names=time_since_recent_deliquency num_times_delinquent max_delinquency_level num_times_30p_dpd num_times_60p_dpd enq_L3m enq_L6m enq_L12m time_since_recent_enq CC_utilization PL_utilization pct_currentBal_all_TL max_unsec_exposure_inPct CC_Flag PL_Flag max_delinquency_level_missing time_since_recent_deliquency_missing enq_L12m_missing enq_L6m_missing PL_utilization_missing pct_currentBal_all_TL_missing max_unsec_exposure_inPct_missing CC_utilization_missing time_since_recent_enq_missing enq_L3m_missing
monotone_constraints=1 -1 -1 -1 -1 -1 -1 -1 1 -1 -1 -1 -1 0 0 0 0 0 0 0 0 0 0 0 0
feature_infos=[0:35] [0:67] [1:900] [0:60] [0:52] [0:42] [0:66] [0:87] [0:4768] [0:1.5] [0:1.5] [0:1.5] [0:2] [0:1] [0:1] [0:1] [0:1] [0:1] [0:1] [0:1] [0:1] [0:1] [0:1] [0:1] [0:1]
tree_sizes=2759 2833 2849 2855 2839 2889 2873 2905 2858 2858 2893 2899 2852 2852 2891 2872 2866 2864 2917 2865 2877 2859 2889 2872 2881 2908 2867 2873 2891 2886 2886 2874 2682 2866 2909 2882 2916 2903 2895 2882 2879 2867 2887 2875 2893 2877 2891 2869 2903 2911 2907 2889 2915 2920 2882 2864 2007 2864 2876 2911 2877 2913 2712 2857 2938 2895 2443 2913 2931 2920 2905 2921 2895 2895 2906 2887 2931 2943 2907 2924 2916 2919 2922 2922

Tree=0
num_leaves=31
num_cat=0
split_feature=5 5 8 8 5 1 5 8 8 1 5 1 14 1 5 14 14 14 8 14 5 14 10 6 14 5 6 8 1 14
split_gain=2.94387e+06 887933 432980 221138 184787 178889 169845 87719.8 54509.4 54434.9 44989.2 27732.8 21860.5 21076.7 20775.5 17059 16670.6 16582.1 15265.7 15013.5 12063 11337.1 9855.22 7967.28 7213.62 6743.92 5744.53 4618.46 4173.31 3546.62
threshold=1.5000000000000002 6.5000000000000009 74.500000000000014 1410.5000000000002 3.5000000000000004 1.0000000180025095e-35 12.500000000000002 345.50000000000006 2283.5000000000005 1.0000000180025095e-35 2.5000000000000004 1.0000000180025095e-35 1.0000000180025095e-35 1.0000000180025095e-35 4.5000000000000009 1.0000000180025095e-35 1.0000000180025095e-35 1.0000000180025095e-35 786.50000000000011 1.0000000180025095e-35 8.5000000000000018 1.0000000180025095e-35 0.9255000000000001 1.5000000000000002 1.0000000180025095e-35 15.500000000000002 1.5000000000000002 2647.5000000000005 1.0000000180025095e-35 1.0000000180025095e-35
decision_type=2 2 2 2 2 2 2 2 2 2 2 2 2 2 2 2 2 2 2 2 2 2 2 2 2 2 2 2 2 2
left_child=2 4 9 5 10 7 20 15 13 17 11 -2 -11 -5 29 26 18 23 -9 -7 -3 28 -17 -1 -13 -8 -4 -10 -12 -6
right_child=1 6 3 8 14 19 25 16 27 12 21 24 -14 -15 -16 22 -18 -19 -20 -21 -22 -23 -24 -25 -26 -27 -28 -29 -30 -31
leaf_value=679.98194315110584 679.64801787863291 678.09115098227369 680.31934647216713 681.04898315889443 678.94368625698291 680.11512815672359 676.76947203650025 680.46809061017075 681.25426446336428 679.66991696686705 679.26454630003911 679.3868688582113 679.82933308386237 680.67939303645812 678.65659206975943 680.46809061017075 680.67939303645812 680.11512815672359 680.67939303645812 680.2606791411946 677.49296469865794 679.3868688582113 680.2606791411946 679.82933308386237 679.51744336842205 675.03176067306879 680.2606791411946 681.82321432326853 679.14170422643792 679.14170422643792
leaf_weight=2791 2239 342 7171 493 725 3740 57 2205 128 1763 931 963 457 249 821 782 455 624 985 774 251 450 337 1098 302 63 784 181 475 279
leaf_count=2791 2239 342 7171 493 725 3740 57 2205 128 1763 931 963 457 249 821 782 455 624 985 774 251 450 337 1098 302 63 784 181 475 279
internal_value=679.952 679.116 680.223 680.35 679.285 680.306 677.439 680.406 681.052 679.881 679.433 679.54 679.678 680.81 678.85 680.323 680.614 679.98 680.542 680.115 677.82 679.234 680.468 679.937 679.387 675.719 680.296 681.612 679.159 679.014
internal_weight=0 7898 25017 18284 7185 17233 713 12719 1051 6733 5360 3504 2220 742 1825 9074 3645 4513 3190 4514 593 1856 1119 3889 1265 120 7955 309 1406 1004
internal_count=32915 7898 25017 18284 7185 17233 713 12719 1051 6733 5360 3504 2220 742 1825 9074 3645 4513 3190 4514 593 1856 1119 3889 1265 120 7955 309 1406 1004
is_linear=0
shrinkage=1


Tree=1
num_leaves=31
num_cat=0
split_feature=5 5 8 5 8 5 14 3 14 8 5 10 8 5 3 14 2 21 2 8 14 13 7 6 14 5 13 0 5 21
split_gain=2.67208e+06 821869 385670 207297 197710 136013 109441 60068.2 44506.4 44086.2 41352.1 41141.3 38522.4 28531.1 16976.1 14574.3 11285.9 10096.9 9961.37 9793 8951.37 8819.71 8031.27 7901.95 7522.27 6488.38 4722.99 4012.67 3766.76 3697.38
threshold=1.5000000000000002 5.5000000000000009 74.500000000000014 12.500000000000002 1410.5000000000002 2.5000000000000004 1.0000000180025095e-35 1.0000000180025095e-35 1.0000000180025095e-35 2283.5000000000005 7.5000000000000009 0.9425 424.50000000000006 3.5000000000000004 1.0000000180025095e-35 1.0000000180025095e-35 36.500000000000007 1.0000000180025095e-35 40.500000000000007 138.50000000000003 1.0000000180025095e-35 1.0000000180025095e-35 1.5000000000000002 1.5000000000000002 1.0000000180025095e-35 16.500000000000004 1.0000000180025095e-35 9.5000000000000018 4.5000000000000009 1.0000000180025095e-35
decision_type=2 2 2 2 2 2 2 2 2 2 2 2 2 2 2 2 2 2 2 2 2 2 2 2 2 2 2 2 2 2
left_child=2 5 8 10 6 15 7 12 14 18 -3 19 23 24 21 16 -2 27 29 -8 28 22 -1 26 -7 -5 -4 -14 -15 -6
right_child=1 3 4 25 9 13 11 -9 -10 -11 -12 -13 17 20 -16 -17 -18 -19 -20 -21 -22 -23 -24 -25 -26 -27 -28 -29 -30 -31
leaf_value=-0.037281360089972633 -0.39233766350904997 -1.5071589259240987 0.29094708720975809 -3.1245424094364833 1.2011893386653361 -0.7608603659700317 0.44421958788766286 0.14987160148930526 0.14987160148930526 1.5722876443076381 -2.2342813594215163 0.14987160148930526 0.37950964485584465 -0.98606961723726205 -0.27470081351927461 -0.27470081351927461 -0.60432062604895498 0.42045676278197058 0.68659275563373612 0.68659275563373612 -0.84125341562938338 0.14987160148930526 -0.17241445384610671 0.23844058316302022 -0.60432062604895498 -4.8023008572853216 0.37950964485584465 0.66208025483920863 -1.2344002560699914 0.8743676385661332
leaf_weight=2091 2269 525 8447 71 103 1429 542 1955 1076 286 392 362 104 718 899 740 456 2185 161 1459 439 299 2322 926 440 54 423 808 368 484
leaf_count=2091 2269 525 8447 71 103 1429 542 1955 1076 286 392 362 104 718 899 740 456 2185 161 1459 439 299 2322 926 440 54 423 808 368 484
internal_value=0 -0.802156 0.252754 -2.10755 0.371781 -0.602453 0.331228 0.280752 -0.0720381 1.04196 -1.82842 0.647128 0.32701 -0.827417 -0.130327 -0.381225 -0.441757 0.480875 0.830091 0.686593 -0.990199 -0.0905984 -0.108499 0.278145 -0.692308 -4.00616 0.301677 0.622544 -1.07549 0.955368
internal_weight=0 7901 24932 1042 18245 6859 17211 14848 6687 1034 917 2363 12893 3394 5611 3465 2725 3097 748 2001 1525 4712 4413 9796 1869 125 8870 912 1086 587
internal_count=32833 7901 24932 1042 18245 6859 17211 14848 6687 1034 917 2363 12893 3394 5611 3465 2725 3097 748 2001 1525 4712 4413 9796 1869 125 8870 912 1086 587
is_linear=0
shrinkage=0.05


Tree=2
num_leaves=31
num_cat=0
split_feature=5 5 8 15 5 8 5 15 14 8 14 5 14 5 10 15 6 8 14 15 14 8 7 5 5 14 14 10 10 6
split_gain=2.43179e+06 754206 359151 209480 197166 193456 113802 49894.9 49269.6 44164.1 35854.1 34128.7 30687.5 28517.9 26472.6 24488.9 19461.7 16889.2 16806 12146.8 11987.1 11220.9 8944.02 8255.33 7249.94 6190.92 4536.02 4102.14 3632.29 3618.81
threshold=1.5000000000000002 5.5000000000000009 74.500000000000014 1.0000000180025095e-35 12.500000000000002 801.50000000000011 2.5000000000000004 1.0000000180025095e-35 1.0000000180025095e-35 1940.5000000000002 1.0000000180025095e-35 7.5000000000000009 1.0000000180025095e-35 3.5000000000000004 0.9215000000000001 1.0000000180025095e-35 1.5000000000000002 210.50000000000003 1.0000000180025095e-35 1.0000000180025095e-35 1.0000000180025095e-35 345.50000000000006 1.5000000000000002 4.5000000000000009 16.500000000000004 1.0000000180025095e-35 1.0000000180025095e-35 0.87750000000000006 0.86950000000000005 1.0000000180025095e-35
decision_type=2 2 2 2 2 2 2 2 2 2 2 2 2 2 2 2 2 2 2 2 2 2 2 2 2 2 2 2 2 2
left_child=2 6 7 10 11 8 15 12 16 25 -4 -3 -1 19 -10 18 21 27 -2 26 22 -5 -9 -15 -6 -7 -8 -12 -14 -16
right_child=1 4 3 5 24 9 13 20 14 -11 17 -13 28 23 29 -17 -18 -19 -20 -21 -22 -23 -24 -25 -26 -27 -28 -29 -30 -31
leaf_value=-0.26500077635096508 -0.57897864361112761 -1.4426797925609236 0.14016178969963264 0.33370795524703878 -3.0200260470807554 0.77392437085567289 -0.79766410085484862 0.064729928791442223 0.66400647087006903 1.4587140888837034 0.39386140023263133 -2.106385762380262 0.14016178969963264 -0.85164161860927967 0.445530120314443 -0.27242182376786067 0.14016178969963264 0.72681807460338543 -0.26500077635096508 -0.57897864361112761 0.14016178969963264 0.46339818801526589 -0.087551875950602612 -1.1230303789735763 -4.6501391969878103 1.1364564134745123 -0.57897864361112761 0.14016178969963264 -0.1289224311709404 0.14016178969963264
leaf_weight=1760 949 515 4069 7145 75 1280 477 1840 1126 341 240 401 329 996 80 2199 796 441 302 1193 637 2238 2015 512 53 156 171 122 122 274
leaf_count=1760 949 515 4069 7145 75 1280 477 1840 1126 341 240 401 329 996 80 2199 796 441 302 1193 637 2238 2015 512 53 156 171 122 122 274
internal_value=0 -0.7694 0.239399 0.354019 -2.01782 0.458411 -0.576361 -0.0736954 0.38403 0.943983 0.140162 -1.74309 -0.265001 -0.784008 0.653723 -0.37395 0.344516 0.520027 -0.55062 -0.648137 0.0220662 0.364872 -0.0148777 -0.947191 -3.84444 0.817115 -0.797664 0.261636 0.140162 0.227054
internal_weight=0 7843 25011 18308 1044 13436 6799 6703 11659 1777 4872 916 2211 3349 1480 3450 10179 803 1251 1841 4492 9383 3855 1508 128 1436 648 362 451 354
internal_count=32854 7843 25011 18308 1044 13436 6799 6703 11659 1777 4872 916 2211 3349 1480 3450 10179 803 1251 1841 4492 9383 3855 1508 128 1436 648 362 451 354
is_linear=0
shrinkage=0.05


Tree=3
num_leaves=31
num_cat=0
split_feature=6 6 8 1 8 6 6 1 14 8 14 8 8 14 6 10 6 1 14 8 21 14 6 14 6 8 13 10 7 6
split_gain=1.82853e+06 502500 457831 195075 169855 124890 115000 60399.8 47509.2 45339.3 42887.1 36271 32349.6 27230.4 23373.6 23367.7 19514.7 18779.6 13877.5 12841.8 12496 7609.99 6191.45 5658.18 5257.21 4996.36 3609.4 3063.59 2758.55 2328.37
threshold=2.5000000000000004 10.500000000000002 74.500000000000014 1.0000000180025095e-35 769.50000000000011 23.500000000000004 5.5000000000000009 1.0000000180025095e-35 1.0000000180025095e-35 2047.5000000000002 1.0000000180025095e-35 73.500000000000014 27.500000000000004 1.0000000180025095e-35 14.500000000000002 0.9215000000000001 1.5000000000000002 1.0000000180025095e-35 1.0000000180025095e-35 380.50000000000006 1.0000000180025095e-35 1.0000000180025095e-35 3.5000000000000004 1.0000000180025095e-35 7.5000000000000009 1371.5000000000002 1.0000000180025095e-35 0.99850000000000005 1.5000000000000002 1.5000000000000002
decision_type=2 2 2 2 2 2 2 2 2 2 2 2 2 2 2 2 2 2 2 2 2 2 2 2 2 2 2 2 2 2
left_child=2 6 7 4 8 14 10 16 19 20 11 17 18 -5 -3 -10 23 22 24 29 -6 -9 -2 28 -8 -22 -18 -12 -1 -4
right_child=1 5 3 13 9 -7 12 21 15 -11 27 -13 -14 -15 -16 -17 26 -19 -20 -21 25 -23 -24 -25 -26 -27 -28 -29 -30 -31
leaf_value=0.057745706212038929 -0.41833728877524179 -1.4676552113491441 0.3122799787206279 0.10883783235622078 1.0127471346052905 -4.1021038653245609 -1.036829859972429 -0.24874719466704287 0.6225925809901437 1.438586017019879 -0.24874719466704287 -0.24874719466704287 -0.67692231898793231 0.27409349586980225 -2.1822077956591914 0.27409349586980225 -0.13247689744696034 -0.67692231898793231 -0.86098393540534102 0.44544918788271359 0.6225925809901437 -0.13247689744696034 -0.57663075624687055 0.10883783235622078 -1.2845549668978993 0.8384314835227189 -0.034941318258683872 -0.5563564935373142 -0.034941318258683872 0.27409349586980225
leaf_weight=1862 1079 372 7428 3907 404 62 551 2166 1051 306 1047 443 425 748 229 298 1887 1114 435 1854 781 488 1127 327 345 378 149 155 920 513
leaf_count=1862 1079 372 7428 3907 404 62 551 2166 1051 306 1047 443 425 748 229 298 1887 1114 435 1854 781 488 1127 327 345 378 149 155 920 513
internal_value=0 -0.695438 0.197943 0.338765 0.439349 -2.00417 -0.564943 -0.121089 0.365064 0.880121 -0.441161 -0.526903 -0.912684 0.108838 -1.75568 0.622593 -0.0162066 -0.587927 -1.04505 0.326337 0.766547 -0.248747 -0.492041 0.0625943 -1.1657 0.676746 -0.132477 -0.248747 0.0223154 0.298264
internal_weight=0 7384 25467 17668 13013 663 6721 7799 11144 1869 4965 3763 1756 4655 601 1349 5145 3320 1331 9795 1563 2654 2206 3109 896 1159 2036 1202 2782 7941
internal_count=32851 7384 25467 17668 13013 663 6721 7799 11144 1869 4965 3763 1756 4655 601 1349 5145 3320 1331 9795 1563 2654 2206 3109 896 1159 2036 1202 2782 7941
is_linear=0
shrinkage=0.05


Tree=4
num_leaves=31
num_cat=0
split_feature=5 5 8 1 5 5 8 14 8 14 1 1 8 5 14 8 8 5 5 14 23 6 5 1 21 21 8 10 8 19
split_gain=1.98199e+06 641972 279946 157871 133553 122511 107106 98340.3 77715.8 51992.2 50176.5 37634 32002.6 20837 20050.4 15276.3 15112.9 12978.4 11597.5 11169.7 10766.4 7673.21 7046.32 5899.39 5335.34 4312.85 3630.83 3316.2 3106.35 2673.14
threshold=1.5000000000000002 6.5000000000000009 261.50000000000006 1.0000000180025095e-35 3.5000000000000004 12.500000000000002 1940.5000000000002 1.0000000180025095e-35 74.500000000000014 1.0000000180025095e-35 1.0000000180025095e-35 1.0000000180025095e-35 786.50000000000011 2.5000000000000004 1.0000000180025095e-35 95.500000000000014 2647.5000000000005 4.5000000000000009 8.5000000000000018 1.0000000180025095e-35 1.0000000180025095e-35 1.0000000180025095e-35 16.500000000000004 1.0000000180025095e-35 1.0000000180025095e-35 1.0000000180025095e-35 1169.5000000000002 0.82150000000000001 527.50000000000011 1.0000000180025095e-35
decision_type=2 2 2 2 2 2 2 2 2 2 2 2 2 2 2 2 2 2 2 2 2 2 2 2 2 2 2 2 2 2
left_child=2 4 3 8 11 18 7 10 19 15 12 13 28 -2 -13 -5 23 29 -3 -1 21 -10 -7 -8 -14 -17 -26 -23 -4 -6
right_child=1 5 6 9 17 22 16 -9 20 -11 -12 14 24 -15 -16 25 -18 -19 -20 -21 -22 27 -24 -25 26 -27 -28 -29 -30 -31
leaf_value=0.025949137315910253 -0.23781405000613667 -1.5243127962786152 0.37507820390471558 -0.23781405000613667 -0.67135641238308752 -2.7795367967514766 1.1225140162573921 0.80100317074314431 0.28400500749397239 0.025949137315910253 0.28400500749397239 -0.67135641238308752 0.80100317074314431 -0.45953361026339706 -0.45953361026339706 0.025949137315910253 1.5544518898403834 -1.0735980891606838 -2.0719612194898014 0.15708350481720371 0.28400500749397239 0.2213927497769356 -4.300817853754217 0.80100317074314431 0.52865364646247748 -0.14316644138851384 0.71655676929140277 0.15708350481720371 0.47443946545102639 -0.84177181976798343
leaf_weight=3838 2176 338 2325 2644 216 79 220 999 1598 909 1945 1439 259 1210 479 646 184 822 258 622 3260 163 50 76 525 424 501 2853 861 755
leaf_count=3838 2176 338 2325 2644 216 79 220 999 1598 909 1945 1439 259 1210 479 646 184 822 258 622 3260 163 50 76 525 424 501 2853 861 755
internal_value=0 -0.693994 0.218366 0.1038 -0.54831 -2.10656 0.46421 0.416768 0.197182 -0.145283 0.343407 -0.421504 0.466151 -0.320434 -0.598633 -0.237814 1.18524 -0.921209 -1.77665 0.030162 0.284005 0.206444 -3.50766 0.933718 0.677209 -0.0485188 0.613323 0.15878 0.380099 -0.787365
internal_weight=0 7822 24852 16957 7097 725 7895 7415 12334 4623 6416 5304 4471 3386 1918 3714 480 1793 596 4460 7874 4614 129 296 1285 1070 1026 3016 3186 971
internal_count=32674 7822 24852 16957 7097 725 7895 7415 12334 4623 6416 5304 4471 3386 1918 3714 480 1793 596 4460 7874 4614 129 296 1285 1070 1026 3016 3186 971
is_linear=0
shrinkage=0.05


Tree=5
num_leaves=31
num_cat=0
split_feature=5 5 1 7 5 5 5 17 6 5 14 14 1 14 14 5 1 14 14 6 5 13 13 5 19 13 13 6 13 13
split_gain=1.75816e+06 581602 252722 210591 120559 118475 85529.4 68571.9 45621.2 40691.5 35771.7 20152.5 17508.5 16984.2 14699.3 12839.4 12086.7 11305.1 8945.48 6188.79 4315.23 3143 2630.24 2596.48 2053.09 1742.63 1226.59 1090.79 704.797 542.796
threshold=1.5000000000000002 6.5000000000000009 1.0000000180025095e-35 1.0000000180025095e-35 2.5000000000000004 13.500000000000002 1.0000000180025095e-35 1.0000000180025095e-35 1.0000000180025095e-35 4.5000000000000009 1.0000000180025095e-35 1.0000000180025095e-35 1.0000000180025095e-35 1.0000000180025095e-35 1.0000000180025095e-35 8.5000000000000018 1.0000000180025095e-35 1.0000000180025095e-35 1.0000000180025095e-35 1.0000000180025095e-35 3.5000000000000004 1.0000000180025095e-35 1.0000000180025095e-35 5.5000000000000009 1.0000000180025095e-35 1.0000000180025095e-35 1.0000000180025095e-35 3.5000000000000004 1.0000000180025095e-35 1.0000000180025095e-35
decision_type=2 2 2 2 2 2 2 2 2 2 2 2 2 2 2 2 2 2 2 2 2 2 2 2 2 2 2 2 2 2
left_child=2 4 3 10 12 15 13 8 14 16 22 -8 27 19 25 -3 20 29 -18 21 -6 -4 -1 -11 -12 -5 -10 -2 -22 -14
right_child=1 5 6 7 9 -7 11 -9 26 23 24 -13 17 -15 -16 -17 18 -19 -20 -21 28 -23 -24 -25 -26 -27 -28 -29 -30 -31
leaf_value=0.54854911792599703 -0.22603645197389088 -1.4677017768669842 0.027352950637775132 0.24668992314499852 -0.51038432805925749 -3.6232944937313309 -0.22603645197389088 0.403638900967139 0.12422829638051942 -0.92022027654121785 0.92076178975972933 -0.060440282991804109 -0.51038432805925749 0.12422829638051942 0.41090374176997885 -2.0156586746184746 -0.82074418006142502 -0.34018928777338497 -0.65463172032650674 -0.060440282991804109 -0.65463172032650674 0.12422829638051942 0.75468095755342191 -1.1578009506528182 1.2422982144175934 0.41090374176997885 0.22346793418207747 -0.30538492007542589 -0.58250802419288206 -0.34018928777338497
leaf_weight=3442 1761 346 2269 2447 1212 97 2653 3352 6860 523 322 538 856 733 401 276 713 319 291 741 578 166 198 334 140 146 616 478 79 95
leaf_count=3442 1761 346 2269 2447 1212 97 2653 3352 6860 523 322 538 856 733 401 276 713 319 291 741 578 166 198 334 140 146 616 478 79 95
internal_value=0 -0.65253 0.200457 0.30044 -0.516974 -2.00434 -0.0519838 0.206937 0.1438 -0.714837 0.61487 -0.226036 -0.305932 0.105156 0.322708 -1.72498 -0.622497 -0.454342 -0.765334 0.00666995 -0.543929 0.0501038 0.560782 -1.01899 1.03045 0.257773 0.124228 -0.226036 -0.654632 -0.510384
internal_weight=0 7958 25024 17924 7239 719 7100 13822 10470 3730 4102 3191 3509 3909 2994 622 2873 1270 1004 3176 1869 2435 3640 857 462 2593 7476 2239 657 951
internal_count=32982 7958 25024 17924 7239 719 7100 13822 10470 3730 4102 3191 3509 3909 2994 622 2873 1270 1004 3176 1869 2435 3640 857 462 2593 7476 2239 657 951
is_linear=0
shrinkage=0.05


Tree=6
num_leaves=31
num_cat=0
split_feature=5 5 8 1 8 5 5 10 8 1 1 5 8 19 1 19 5 7 21 8 19 21 21 13 19 21 13 8 13 8
split_gain=1.55935e+06 513399 245127 140088 141342 123652 77100.6 33977.5 31227.7 29264.2 20937.9 20376 18053.4 15678.1 16540.2 11449.6 8208.52 7603.41 7483.11 10706.4 6655.13 6533.61 4284.51 4188.06 3161.77 2759.96 2447.92 2009.78 1955.86 1906.62
threshold=1.5000000000000002 5.5000000000000009 74.500000000000014 1.0000000180025095e-35 848.50000000000011 12.500000000000002 2.5000000000000004 0.82150000000000001 2047.5000000000002 1.0000000180025095e-35 1.0000000180025095e-35 7.5000000000000009 345.50000000000006 1.0000000180025095e-35 1.0000000180025095e-35 1.0000000180025095e-35 3.5000000000000004 1.5000000000000002 1.0000000180025095e-35 201.50000000000003 1.0000000180025095e-35 1.0000000180025095e-35 1.0000000180025095e-35 1.0000000180025095e-35 1.0000000180025095e-35 1.0000000180025095e-35 1.0000000180025095e-35 3344.5000000000005 1.0000000180025095e-35 1287.5000000000002
decision_type=2 2 2 2 2 2 2 2 2 2 2 2 2 2 2 2 2 2 2 2 2 2 2 2 2 2 2 2 2 2
left_child=2 6 9 4 7 11 10 -4 21 17 -2 -3 23 -8 16 -11 -15 25 19 -5 -12 -6 -14 -9 -19 -1 -26 -10 -16 -23
right_child=1 5 3 18 8 -7 13 12 27 15 20 -13 22 14 28 -17 -18 24 -20 -21 -22 29 -24 -25 26 -27 -28 -29 -30 -31
leaf_value=0.11073211564822485 -0.21015390805606851 -1.2017341492299476 0.55596069276548321 0.11073211564822485 0.88975151842487044 -3.1288561768829823 -0.45921876580756038 0.2463269212204971 1.1380573634220208 -0.10103542603287521 -0.33187635407054672 -1.7221078284394455 0.42301572372636453 -0.4880525093733894 -0.90583312844499853 -0.21015390805606851 -0.71363431516382847 0.01404908678340407 0.11073211564822485 0.24141460647821489 -0.45921876580756038 0.55596069276548321 0.33711996021508522 0.33336091912278643 -0.09896084428665286 0.029249764342643821 0.01404908678340407 1.6557778007105779 -0.72743742918186571 0.7098092601371454
leaf_weight=680 2226 519 573 1068 340 123 687 8353 271 368 270 392 833 961 750 1862 795 346 2391 1357 996 576 1622 476 1912 1337 164 52 143 441
leaf_count=680 2226 519 573 1068 340 123 687 8353 271 368 270 392 833 961 750 1862 795 346 2391 1357 996 576 1622 476 1912 1337 164 52 143 441
internal_value=0 -0.613671 0.193363 0.287679 0.372097 -1.64955 -0.45571 0.31103 0.800891 -0.066215 -0.29083 -1.43383 0.290071 -0.627608 -0.684741 -0.210154 -0.591917 0.00808306 0.110732 0.233126 -0.453599 0.69091 0.410294 0.256428 -0.0515887 0.0796868 -0.0798844 1.24538 -0.862958 0.620406
internal_weight=0 7862 25022 18353 13537 1034 6828 11857 1680 6669 3492 911 11284 3336 2649 2230 1756 4439 4816 2425 1266 1357 2455 8829 2422 2017 2076 323 893 1017
internal_count=32884 7862 25022 18353 13537 1034 6828 11857 1680 6669 3492 911 11284 3336 2649 2230 1756 4439 4816 2425 1266 1357 2455 8829 2422 2017 2076 323 893 1017
is_linear=0
shrinkage=0.05


Tree=7
num_leaves=31
num_cat=0
split_feature=5 5 6 5 1 5 1 23 21 5 10 5 5 1 19 1 13 19 13 19 10 5 19 13 23 13 12 10 5 9
split_gain=1.45126e+06 479788 214346 144099 128094 72696.3 69375.3 54090.7 32627 32338.2 25334.6 18134.1 17425.7 17356.2 11868.9 14216.1 8139.34 7517.99 5069.21 4451.26 4227.89 3805.33 3722.48 3901.31 3405.37 3402.65 2488.93 2281.87 2148.17 1795.01
threshold=1.5000000000000002 5.5000000000000009 1.0000000180025095e-35 14.500000000000002 1.0000000180025095e-35 2.5000000000000004 1.0000000180025095e-35 1.0000000180025095e-35 1.0000000180025095e-35 9.5000000000000018 0.82650000000000012 4.5000000000000009 1.0000000180025095e-35 1.0000000180025095e-35 1.0000000180025095e-35 1.0000000180025095e-35 1.0000000180025095e-35 1.0000000180025095e-35 1.0000000180025095e-35 1.0000000180025095e-35 0.83350000000000002 7.5000000000000009 1.0000000180025095e-35 1.0000000180025095e-35 1.0000000180025095e-35 1.0000000180025095e-35 0.096500000000000016 0.82150000000000001 1.0000000180025095e-35 0.73875000000000013
decision_type=2 2 2 2 2 2 2 2 2 2 2 2 2 2 2 2 2 2 2 2 2 2 2 2 2 2 2 2 2 2
left_child=2 5 6 9 7 13 10 12 22 21 -1 14 25 -2 -7 -16 26 -15 20 -8 -14 -3 -6 24 28 27 -12 -4 -24 -18
right_child=1 3 4 -5 8 11 19 -9 -10 -11 16 -13 18 17 15 -17 29 -19 -20 -21 -22 -23 23 -25 -26 -27 -28 -29 -30 -31
leaf_value=0.81462020587487904 -0.20425992620277872 -1.1467223028591753 0.21423707852143481 -3.6505288775374249 -0.0093578415453065226 -0.44597615322842055 0.33245230554573291 0.21423707852143481 -0.20425992620277872 -2.0389738081300512 0.62006214962034778 -0.88503096157371497 0.089460692099922454 -0.31800099306500179 -0.51698269152714038 -0.72141276164018819 0.62006214962034778 -0.44597615322842055 0.089460692099922454 0.21423707852143481 -0.0093578415453065226 -1.4718032930290601 -0.056800982628046393 -0.0093578415453065226 -0.0093578415453065226 0.21423707852143481 0.40585899618979415 0.11854318167607383 -0.19924658817186786 0.35621126539384329
leaf_weight=449 2240 502 102 77 632 593 367 3343 1776 183 92 515 220 263 1511 778 319 998 373 2518 4439 239 384 285 138 259 6149 2119 885 91
leaf_count=449 2240 502 102 77 632 593 367 3343 1776 183 92 515 220 263 1511 778 319 998 373 2518 4439 239 384 285 138 259 6149 2119 885 91
internal_value=0 -0.592999 0.184479 -1.6135 0.0646641 -0.443849 0.36381 0.154582 -0.173298 -1.42501 0.450668 -0.608633 0.0620485 -0.283319 -0.557795 -0.616574 0.425504 -0.431742 0.00854199 0.214237 -0.00935784 -1.26073 -0.012422 -0.0835 -0.125609 0.170379 0.410531 0.136315 -0.156535 0.620062
internal_weight=0 7899 24940 1001 14955 6898 9985 10855 4100 924 7100 3397 7512 3501 2882 2289 6651 1261 5032 2885 4659 741 2324 1692 1407 2480 6241 2221 1269 410
internal_count=32839 7899 24940 1001 14955 6898 9985 10855 4100 924 7100 3397 7512 3501 2882 2289 6651 1261 5032 2885 4659 741 2324 1692 1407 2480 6241 2221 1269 410
is_linear=0
shrinkage=0.05


Tree=8
num_leaves=31
num_cat=0
split_feature=5 5 8 5 1 8 5 14 14 1 8 5 5 1 8 5 8 14 14 7 1 14 1 21 8 21 6 14 6 6
split_gain=1.34972e+06 423291 190525 127673 126366 125022 62971.6 44777.7 33012.2 29924.4 25058.4 18043.4 17950.2 15580.6 14999.5 14060.8 13876.4 12755.8 7337.27 6191.82 6180.91 4814.63 7249.06 4693.92 3763.61 3206.52 2280.28 1754.84 1582.96 1423.07
threshold=1.5000000000000002 5.5000000000000009 74.500000000000014 12.500000000000002 1.0000000180025095e-35 1038.5000000000002 2.5000000000000004 1.0000000180025095e-35 1.0000000180025095e-35 1.0000000180025095e-35 2283.5000000000005 8.5000000000000018 3.5000000000000004 1.0000000180025095e-35 187.50000000000003 16.500000000000004 413.50000000000006 1.0000000180025095e-35 1.0000000180025095e-35 1.5000000000000002 1.0000000180025095e-35 1.0000000180025095e-35 1.0000000180025095e-35 1.0000000180025095e-35 1875.5000000000002 1.0000000180025095e-35 1.5000000000000002 1.0000000180025095e-35 3.5000000000000004 1.5000000000000002
decision_type=2 2 2 2 2 2 2 2 2 2 2 2 2 2 2 2 2 2 2 2 2 2 2 2 2 2 2 2 2 2
left_child=2 6 8 11 5 7 13 16 9 19 23 -3 20 28 26 -5 29 -6 -15 25 -8 22 -14 -7 -25 -1 -9 -22 -2 -4
right_child=1 3 4 15 17 10 12 14 -10 -11 -12 -13 21 18 -16 -17 -18 -19 -20 -21 27 -23 -24 24 -26 -27 -28 -29 -30 -31
leaf_value=0.10692453449266422 -0.19431495723869416 -1.12400089565094 0.24824602576766108 -2.2294867702892849 0.10692453449266422 0.91763554324932173 -0.42808948019295451 0.40199909499492004 0.10692453449266422 -0.19431495723869416 1.2807310003312038 -1.6599088907473747 -0.66782939845156641 -0.42808948019295451 0.55480867718351445 -3.7274876232804921 0.3728617905757432 0.22563991688851825 -0.30683805499399663 -0.075832517320789591 -0.58995926549670885 -0.58995926549670885 -0.96246818060224715 0.57953971590567788 0.89320072200265721 0.003683140762942903 0.22563991688851825 -0.5090243728448316 -0.2855909068496898 0.22563991688851825
leaf_weight=541 1760 661 7742 79 4077 226 1217 447 1076 1771 238 252 727 974 755 53 2134 813 305 2039 473 445 358 676 135 1311 312 179 495 802
leaf_count=541 1760 661 7742 79 4077 226 1217 447 1076 1771 238 252 727 974 755 53 2134 813 305 2039 473 445 358 676 135 1311 312 179 495 802
internal_value=0 -0.567517 0.178887 -1.50348 0.262336 0.344355 -0.425459 0.294847 -0.0484866 -0.101191 0.81477 -1.28015 -0.57913 -0.277049 0.54923 -2.94505 0.258539 0.106925 -0.416428 -0.0158082 -0.472522 -0.707396 -0.769016 0.702196 0.636905 0.0503032 0.328626 -0.589959 -0.197249 0.229783
internal_weight=0 7978 25095 1045 18357 13467 6933 12192 6738 5662 1275 913 3399 3534 1514 132 10678 4890 1279 3891 1869 1530 1085 1037 811 1852 759 652 2255 8544
internal_count=33073 7978 25095 1045 18357 13467 6933 12192 6738 5662 1275 913 3399 3534 1514 132 10678 4890 1279 3891 1869 1530 1085 1037 811 1852 759 652 2255 8544
is_linear=0
shrinkage=0.05


Tree=9
num_leaves=31
num_cat=0
split_feature=5 5 1 8 5 21 5 8 8 1 8 17 8 21 5 5 13 5 19 19 8 8 13 8 22 19 8 19 13 1
split_gain=1.16558e+06 393052 174157 161910 86890.2 79794.3 76862 61116.4 34435.2 21115.3 15121.6 14531 22867.5 12463.4 11860.1 10110.9 9547.89 9189.17 6383.52 5930.16 5625.21 5520.16 5485.16 4682.72 2976.21 2530.34 2673.76 2149.96 3979.31 2125.55
threshold=1.5000000000000002 6.5000000000000009 1.0000000180025095e-35 665.50000000000011 3.5000000000000004 1.0000000180025095e-35 13.500000000000002 74.500000000000014 1875.5000000000002 1.0000000180025095e-35 119.50000000000001 1.0000000180025095e-35 295.50000000000006 1.0000000180025095e-35 2.5000000000000004 4.5000000000000009 1.0000000180025095e-35 9.5000000000000018 1.0000000180025095e-35 1.0000000180025095e-35 996.50000000000011 1451.5000000000002 1.0000000180025095e-35 3344.5000000000005 1.0000000180025095e-35 1.0000000180025095e-35 16.500000000000004 1.0000000180025095e-35 1.0000000180025095e-35 1.0000000180025095e-35
decision_type=2 2 2 2 2 2 2 2 2 2 2 2 2 2 2 2 2 2 2 2 2 2 2 2 2 2 2 2 2 2
left_child=2 4 3 7 9 10 17 -1 18 14 16 12 22 27 -2 24 -4 -3 -5 -14 -20 -7 -9 -10 -6 -17 -27 -11 -29 -26
right_child=1 6 5 8 15 21 -8 11 23 13 -12 -13 19 -15 -16 25 -18 -19 20 -21 -22 -23 -24 -25 29 26 -28 28 -30 -31
leaf_value=0.10139201655161255 -0.18275098530690947 -1.2785898488413772 -0.11525802792475218 0.80986443202849689 -0.51607839473406469 -0.18275098530690947 -3.0127202977736793 0.1804499690969773 0.96756938881524235 -0.34712397546096868 0.10139201655161255 0.34808880810271403 0.41814873811773129 -0.51607839473406469 -0.34712397546096868 -0.72390414347406673 0.030843940756512003 -1.794848180776355 0.42201004215337523 0.30431176369619872 0.61120023198068607 0.10139201655161255 0.26132142550958948 1.5420042391746276 -0.5783286652812849 -0.97917383381101841 -0.72390414347406673 -0.49443592906466949 -0.34712397546096868 -0.72390414347406673
leaf_weight=4478 2232 434 1563 130 149 3008 91 4697 340 404 1869 3282 297 574 1204 196 360 169 824 2417 892 223 451 57 583 470 180 758 181 293
leaf_count=4478 2232 434 1563 130 149 3008 91 4697 340 404 1869 3282 297 574 1204 196 360 169 824 2417 892 223 451 57 583 470 180 758 181 293
internal_value=0 -0.530905 0.165403 0.248313 -0.421017 -0.0455287 -1.66356 0.191147 0.645151 -0.31798 0.101392 0.259508 0.222332 -0.451066 -0.243182 -0.714177 -0.0397041 -1.43685 0.551531 0.342193 0.521844 -0.182751 0.18045 1.0682 -0.601734 -0.846074 -0.9057 -0.347124 -0.426894 -0.652221
internal_weight=0 7918 24888 17865 7224 7023 694 15622 2243 5353 3792 11144 7862 1917 3436 1871 1923 603 1846 2714 1716 3231 5148 397 1025 846 650 1343 939 876
internal_count=32806 7918 24888 17865 7224 7023 694 15622 2243 5353 3792 11144 7862 1917 3436 1871 1923 603 1846 2714 1716 3231 5148 397 1025 846 650 1343 939 876
is_linear=0
shrinkage=0.05


Tree=10
num_leaves=31
num_cat=0
split_feature=6 6 1 6 6 6 21 17 14 14 6 1 14 1 14 6 10 6 6 14 10 13 13 10 6 14 12 13 21 13
split_gain=904749 306527 149862 87749.7 66965.4 66405.8 58494.5 43194.6 39976.3 29931.9 26472.2 22751.1 17577.8 10138.7 8387.45 6943.06 6793.65 6135.72 5084.19 5037.5 5101.13 4313.33 3590.53 3491.25 3170.36 6745.06 3153.77 1712.67 1325.34 1310.74
threshold=1.5000000000000002 7.5000000000000009 1.0000000180025095e-35 15.500000000000002 1.0000000180025095e-35 3.5000000000000004 1.0000000180025095e-35 1.0000000180025095e-35 1.0000000180025095e-35 1.0000000180025095e-35 25.500000000000004 1.0000000180025095e-35 1.0000000180025095e-35 1.0000000180025095e-35 1.0000000180025095e-35 2.5000000000000004 0.85150000000000003 5.5000000000000009 9.5000000000000018 1.0000000180025095e-35 0.92850000000000021 1.0000000180025095e-35 1.0000000180025095e-35 0.99250000000000005 1.0000000180025095e-35 1.0000000180025095e-35 0.15250000000000002 1.0000000180025095e-35 1.0000000180025095e-35 1.0000000180025095e-35
decision_type=2 2 2 2 2 2 2 2 2 2 2 2 2 2 2 2 2 2 2 2 2 2 2 2 2 2 2 2 2 2
left_child=2 5 4 14 8 9 24 19 21 11 -5 15 13 17 18 -2 -10 29 27 -6 -21 26 -15 -16 -4 -26 -1 -3 -14 -7
right_child=1 3 6 10 7 12 -8 -9 16 -11 -12 -13 28 22 23 -17 -18 -19 -20 20 -22 -23 -24 -25 25 -27 -28 -29 -30 -31
leaf_value=0.61998261357954842 -0.10353559555320313 -0.9037110899818146 0.11851852444339731 -1.5657551125078004 0.11851852444339731 -0.40156122778289549 -0.090409488924885456 0.27434776278768386 0.77410444294182745 -0.090409488924885456 -2.9317646402423669 -0.30860946744246498 -0.30860946744246498 -0.66567258128162177 -0.66567258128162177 -0.23337956830464002 0.41816339492421561 -0.54963046601784471 -1.1558097692083109 0.27434776278768386 0.11851852444339731 0.50735686511439637 -0.54963046601784471 -1.0125626970161783 -0.056132873540306695 0.076044665255545624 0.31851133501167883 -0.66567258128162177 -0.60462221795320514 -0.30860946744246498
leaf_weight=89 2223 290 1440 188 4419 1126 2987 3292 671 1352 54 1693 921 690 383 1294 193 494 312 470 163 351 155 89 1119 398 5819 68 70 130
leaf_count=89 2223 290 1440 188 4419 1126 2987 3292 671 1352 54 1693 921 690 383 1294 193 494 312 470 163 351 155 89 1119 398 5819 68 70 130
internal_value=0 -0.365032 0.184213 -1.06182 0.266194 -0.269527 -0.0291573 0.169908 0.378788 -0.174756 -1.92374 -0.243104 -0.442463 -0.513135 -0.871579 -0.15815 0.697458 -0.441745 -0.991013 0.118519 0.274348 0.334276 -0.657516 -0.693432 0.118519 0.0335708 0.323573 -0.83345 -0.308609 -0.377697
internal_weight=0 11532 21411 1384 15467 10148 5944 8344 7123 6562 242 5210 3586 2595 1142 3517 864 1750 670 5052 633 6259 845 472 2957 1517 5908 358 991 1256
internal_count=32943 11532 21411 1384 15467 10148 5944 8344 7123 6562 242 5210 3586 2595 1142 3517 864 1750 670 5052 633 6259 845 472 2957 1517 5908 358 991 1256
is_linear=0
shrinkage=0.05


Tree=11
num_leaves=31
num_cat=0
split_feature=5 5 7 1 5 5 1 21 17 5 14 14 1 5 14 5 5 14 5 14 14 13 21 1 13 14 1 12 7 14
split_gain=996707 344890 153943 94253.3 88036 65564.9 56246.4 44524.8 37702.5 32716.7 22420.1 20551.5 19843.8 14560.6 10310 9584.55 9292.72 5336.5 4941.4 4655.08 3413.3 3303.41 3046.77 2499.12 1976.84 1732.74 1626.6 1553.78 1490.23 1393.04
threshold=1.5000000000000002 6.5000000000000009 1.0000000180025095e-35 1.0000000180025095e-35 14.500000000000002 3.5000000000000004 1.0000000180025095e-35 1.0000000180025095e-35 1.0000000180025095e-35 1.0000000180025095e-35 1.0000000180025095e-35 1.0000000180025095e-35 1.0000000180025095e-35 9.5000000000000018 1.0000000180025095e-35 4.5000000000000009 2.5000000000000004 1.0000000180025095e-35 1.0000000180025095e-35 1.0000000180025095e-35 1.0000000180025095e-35 1.0000000180025095e-35 1.0000000180025095e-35 1.0000000180025095e-35 1.0000000180025095e-35 1.0000000180025095e-35 1.0000000180025095e-35 0.037500000000000006 2.5000000000000004 1.0000000180025095e-35
decision_type=2 2 2 2 2 2 2 2 2 2 2 2 2 2 2 2 2 2 2 2 2 2 2 2 2 2 2 2 2 2
left_child=2 5 6 8 13 11 10 17 9 14 22 12 16 -3 21 23 28 18 -5 -11 -8 27 -1 -7 -20 26 -17 -4 -2 -25
right_child=1 4 3 7 -6 15 20 -9 -10 19 -12 -13 -14 -15 -16 25 -18 -19 24 -21 -22 -23 -24 29 -26 -27 -28 -29 -30 -31
leaf_value=0.51684435607865942 -0.1708768830923505 -1.1349922425008265 0.22540826119919599 0.025015568199996192 -3.1007517935281776 -0.47343616933167693 0.22540826119919599 -0.1708768830923505 0.22540826119919599 0.025015568199996192 0.80036428584946229 -0.1708768830923505 -0.47343616933167693 -1.7053496664703482 0.22540826119919599 -0.75030063560924631 -0.37330213305301591 0.025015568199996192 -0.15621553992609299 0.10368377043049976 0.35233917221686761 0.22540826119919599 0.40682689918044512 -0.65595409569389451 -0.049822513352867172 -0.65595409569389451 -0.96367512971012437 0.11766133475707548 -0.24328716123132624 -0.56256955897003014
leaf_weight=951 679 437 55 934 78 642 1654 2184 3283 4244 483 1198 1435 197 893 396 946 927 1021 721 271 310 2720 233 163 260 175 4199 1105 118
leaf_count=951 679 437 55 934 78 642 1654 2184 3283 4244 483 1198 1435 197 893 396 946 927 1021 721 271 310 2720 233 163 260 175 4199 1105 118
internal_value=0 -0.492922 0.151168 0.0808374 -1.53906 -0.388285 0.369979 -0.0996994 0.149731 0.0965893 0.47927 -0.299723 -0.354525 -1.32417 0.182352 -0.64715 -0.273168 0.0250156 -0.0570001 0.0250156 0.225408 0.136453 0.435992 -0.536307 -0.124661 -0.775601 -0.834931 0.122998 -0.203879 -0.651703
internal_weight=0 7899 25013 18934 712 7187 6079 5229 13705 10422 4154 5363 4165 634 5457 1824 2730 3045 2118 4965 1925 4564 3671 993 1184 831 571 4254 1784 351
internal_count=32912 7899 25013 18934 712 7187 6079 5229 13705 10422 4154 5363 4165 634 5457 1824 2730 3045 2118 4965 1925 4564 3671 993 1184 831 571 4254 1784 351
is_linear=0
shrinkage=0.05


Tree=12
num_leaves=31
num_cat=0
split_feature=6 6 8 14 16 6 6 8 14 16 6 8 10 8 17 6 16 8 13 8 8 8 13 13 9 14 8 6 8 8
split_gain=766052 246910 126139 114467 125077 90816.5 57056.4 46159.4 35092 25223.9 24953.1 22482.4 18857.2 16554 13579.4 12691.8 11623.6 10769.2 10644.1 7436.94 7436.83 6641.85 5314.48 4085.9 3947.34 3471 3018.44 2457.77 2100.26 1845.87
threshold=1.5000000000000002 7.5000000000000009 1410.5000000000002 1.0000000180025095e-35 1.0000000180025095e-35 25.500000000000004 4.5000000000000009 74.500000000000014 1.0000000180025095e-35 1.0000000180025095e-35 12.500000000000002 2647.5000000000005 0.94650000000000001 786.50000000000011 1.0000000180025095e-35 2.5000000000000004 1.0000000180025095e-35 275.50000000000006 1.0000000180025095e-35 23.500000000000004 23.500000000000004 46.500000000000007 1.0000000180025095e-35 1.0000000180025095e-35 0.81650000000000011 1.0000000180025095e-35 159.50000000000003 15.500000000000002 181.50000000000003 527.50000000000011
decision_type=2 2 2 2 2 2 2 2 2 2 2 2 2 2 2 2 2 2 2 2 2 2 2 2 2 2 2 2 2 2
left_child=2 6 3 4 22 10 8 -6 9 23 19 16 -5 14 17 -11 -4 -9 20 25 -8 -17 -1 -2 26 -3 -24 -12 -14 -19
right_child=1 5 11 12 7 -7 18 13 -10 15 27 -13 28 -15 -16 21 -18 29 -20 -21 -22 -23 24 -25 -26 -27 -28 -29 -30 -31
leaf_value=-0.079475614907716693 -0.33521731305719937 -0.92879947827808929 0.42540621014175128 0.42540621014175128 -2.6763066242845818e-05 -2.9542104857308527 -0.60683675181711971 0.11512674389416772 -0.079475614907716693 -0.091500333259344535 -1.0173536979655426 1.2102720930614574 -0.079475614907716693 0.42540621014175128 0.29483340589298679 -0.3221468818001571 0.7249374315599163 0.20898395885006746 -0.33521731305719937 -0.60683675181711971 -0.37797361353808434 -0.17793219416697803 0.11023492973300249 -0.079475614907716693 -0.079475614907716693 -0.71826843270177188 0.42540621014175128 -1.3990317625724353 0.20745333231261803 0.29765792256316753
leaf_weight=4351 1884 449 270 2278 2762 51 1180 3170 1674 2251 175 182 205 940 3127 1528 607 2134 342 229 531 491 93 225 79 260 131 190 60 872
leaf_count=4351 1884 449 270 2278 2762 51 1180 3170 1674 2251 175 182 205 940 3127 1528 607 2134 342 229 531 491 93 225 79 260 131 190 60 872
internal_value=0 -0.332999 0.174048 0.146061 0.100568 -0.965907 -0.247767 0.181386 -0.18757 -0.248281 -0.877088 0.704751 0.425406 0.23028 0.209854 -0.17345 0.593577 0.166625 -0.482865 -0.733082 -0.540105 -0.264364 -0.0794756 -0.335217 0.19419 -0.8297 0.299945 -1.23226 -0.0104995 0.235159
internal_weight=0 11460 21261 20202 17659 1354 10106 13005 8053 6379 1303 1059 2543 10243 9303 4270 877 6176 2053 938 1711 2019 4654 2109 303 709 224 365 265 3006
internal_count=32721 11460 21261 20202 17659 1354 10106 13005 8053 6379 1303 1059 2543 10243 9303 4270 877 6176 2053 938 1711 2019 4654 2109 303 709 224 365 265 3006
is_linear=0
shrinkage=0.05


Tree=13
num_leaves=31
num_cat=0
split_feature=8 6 6 8 1 6 8 21 1 6 14 14 8 6 1 14 21 10 8 8 8 6 14 1 14 9 6 9 10 8
split_gain=688468 293005 110054 83750.1 74218.3 62186.7 40217.1 32275.2 32199.3 25224.1 19542.4 19187.2 17101 12315.4 10415.2 9216.08 8921.81 7739.16 6877.4 6201.35 5215.22 4985.86 4074.14 3026.33 2608.36 2220.28 2162.07 1905.62 1475.02 1270.92
threshold=74.500000000000014 5.5000000000000009 15.500000000000002 1940.5000000000002 1.0000000180025095e-35 2.5000000000000004 588.50000000000011 1.0000000180025095e-35 1.0000000180025095e-35 25.500000000000004 1.0000000180025095e-35 1.0000000180025095e-35 27.500000000000004 9.5000000000000018 1.0000000180025095e-35 1.0000000180025095e-35 1.0000000180025095e-35 0.94450000000000001 2647.5000000000005 138.50000000000003 1169.5000000000002 1.5000000000000002 1.0000000180025095e-35 1.5000000000000002 1.0000000180025095e-35 0.72950000000000015 3.5000000000000004 0.24000000000000002 0.98350000000000015 340.50000000000006
decision_type=2 2 2 2 2 2 2 2 2 2 2 2 2 2 2 2 2 2 2 2 2 2 2 2 2 2 2 2 2 2
left_child=1 5 12 4 6 8 11 19 -1 -4 14 21 13 22 25 -10 -8 -13 23 -6 -18 27 -3 -5 -15 -7 -27 -2 -26 -29
right_child=3 2 9 18 7 10 16 -9 15 -11 -12 17 -14 24 -16 -17 20 -19 -20 -21 -22 -23 -24 -25 28 26 -28 29 -30 -31
leaf_value=-0.032356526000608087 0.32102331645324239 -0.72980201872005157 -1.4231437840537788 0.81255727588321303 -0.029186673252259709 -0.19860951045263889 0.53060548315805522 -0.032356526000608087 -0.19860951045263889 -2.7172302984422254 -0.19860951045263889 0.32102331645324239 -0.4703090980067739 -1.0762919212270665 -0.4703090980067739 -0.11548301822662349 0.32102331645324239 0.12747730249174924 1.1556689783108014 0.12747730249174924 0.49692067765728548 0.12747730249174924 -0.60053579959000469 0.53060548315805522 -0.79478336889044754 -0.27192318016001038 -0.37701005576041569 0.17876645736741348 -1.1434133728345237 0.22939781764703013
leaf_weight=5146 118 826 187 216 753 66 621 2306 2172 57 967 1114 382 265 1087 475 1029 285 158 1695 538 863 388 62 167 1033 1111 7040 52 1602
leaf_count=5146 118 826 187 216 753 66 621 2306 2172 57 967 1114 382 265 1087 475 1029 285 158 1695 538 863 388 62 167 1033 1111 7040 52 1602
internal_value=0 -0.263202 -0.776668 0.198489 0.18172 -0.16395 0.242669 0.012286 -0.0798629 -1.77394 -0.317356 0.203629 -0.655707 -0.730763 -0.380505 -0.19861 0.438418 0.321023 0.879491 0.127477 0.366472 0.176733 -0.639987 0.704881 -0.94958 -0.314497 -0.327129 0.19148 -0.794783 0.188279
internal_weight=0 14381 2324 18400 17964 12057 13210 4754 7793 244 4264 11022 2080 1698 3297 2647 2188 1399 436 2448 1567 9623 1214 278 484 2210 2144 8760 219 8642
internal_count=32781 14381 2324 18400 17964 12057 13210 4754 7793 244 4264 11022 2080 1698 3297 2647 2188 1399 436 2448 1567 9623 1214 278 484 2210 2144 8760 219 8642
is_linear=0
shrinkage=0.05


Tree=14
num_leaves=31
num_cat=0
split_feature=5 5 6 14 1 5 5 1 18 7 14 14 1 14 5 13 6 5 13 7 13 5 1 13 5 1 5 13 22 7
split_gain=736560 255263 122461 79535.7 73160 68321.5 54817.7 28795.6 28698.4 24742.5 23120.3 21827.2 17840.6 16062.1 11838.2 7406.24 6628.18 4963.01 4597.77 4592.54 4138.84 3784.1 2691.73 2117.52 1431.92 1219.43 1060.44 788.193 665.624 340.507
threshold=1.5000000000000002 7.5000000000000009 1.0000000180025095e-35 1.0000000180025095e-35 1.0000000180025095e-35 3.5000000000000004 14.500000000000002 1.0000000180025095e-35 1.0000000180025095e-35 1.0000000180025095e-35 1.0000000180025095e-35 1.0000000180025095e-35 1.0000000180025095e-35 1.0000000180025095e-35 5.5000000000000009 1.0000000180025095e-35 2.5000000000000004 9.5000000000000018 1.0000000180025095e-35 1.0000000180025095e-35 1.0000000180025095e-35 1.0000000180025095e-35 1.0000000180025095e-35 1.0000000180025095e-35 2.5000000000000004 1.5000000000000002 4.5000000000000009 1.0000000180025095e-35 1.0000000180025095e-35 1.5000000000000002
decision_type=2 2 2 2 2 2 2 2 2 2 2 2 2 2 2 2 2 2 2 2 2 2 2 2 2 2 2 2 2 2
left_child=2 5 3 7 8 11 17 9 13 23 -6 12 16 15 20 21 -2 -3 19 -5 22 -4 26 -1 -18 -16 -7 -14 -25 -21
right_child=1 6 4 18 10 14 -8 -9 -10 -11 -12 -13 27 -15 25 -17 24 -19 -20 29 -22 -23 -24 28 -26 -27 -28 -29 -30 -31
leaf_value=0.36066922018763459 -0.14539771836908782 -1.050079238605572 0.059329453512191647 0.6723866610111684 -0.14539771836908782 -0.4550193489744867 -2.7276089403364399 0.15386488576541729 0.15386488576541729 0.21710196899272116 -0.013079118911267552 -0.14539771836908782 -0.42332233135528025 0.15386488576541729 -0.72952788415155856 0.15386488576541729 -0.23886858305741643 -1.4792005228537202 0.85311208738457589 0.51070975239753802 -0.42332233135528025 -0.013079118911267552 -0.66192802183375998 0.44511790417568531 -0.32926559720855963 -0.9231995095426534 -0.58458984735493724 -0.32926559720855963 0.71082494989518197 0.39083574200533333
leaf_weight=3485 1109 241 1834 630 3407 565 76 2408 3249 2593 780 1200 1283 1242 387 435 662 193 205 273 253 3974 395 141 936 129 301 148 57 245
leaf_count=3485 1109 241 1834 630 3407 565 76 2408 3249 2593 780 1200 1283 1242 387 435 662 193 205 273 253 3974 395 141 936 129 301 148 57 245
internal_value=0 -0.422596 0.131801 0.266795 0.0409344 -0.347103 -1.4993 0.210997 0.110072 0.280339 -0.13623 -0.252802 -0.312949 0.0427594 -0.593843 0.00811126 -0.235209 -1.25558 0.622832 0.578189 -0.519781 -0.0075025 -0.564901 0.370877 -0.300477 -0.804075 -0.507252 -0.423322 0.537233 0.458291
internal_weight=0 7878 24958 10037 14921 7368 510 8684 10734 6276 4187 5338 4138 7485 2030 6243 2707 434 1353 1148 1514 5808 1261 3683 1598 516 866 1431 198 518
internal_count=32836 7878 24958 10037 14921 7368 510 8684 10734 6276 4187 5338 4138 7485 2030 6243 2707 434 1353 1148 1514 5808 1261 3683 1598 516 866 1431 198 518
is_linear=0
shrinkage=0.05


Tree=15
num_leaves=31
num_cat=0
split_feature=5 5 6 1 14 6 21 5 1 5 7 10 1 10 5 17 5 5 5 10 21 14 1 1 14 22 7 14 22 7
split_gain=669750 163864 154607 84474 69007.5 45023.9 41608 37855 30351.8 24655.1 22160.8 11639.3 9051.02 7405.19 7098.53 6628.06 6142.36 4009.71 3951.16 3834.31 3755.12 3121.08 2830.07 2504.24 2272.09 779.74 726.03 663.916 642.331 488.783
threshold=2.5000000000000004 7.5000000000000009 1.0000000180025095e-35 1.0000000180025095e-35 1.0000000180025095e-35 1.5000000000000002 1.0000000180025095e-35 15.500000000000002 1.0000000180025095e-35 5.5000000000000009 1.0000000180025095e-35 0.83350000000000002 1.0000000180025095e-35 0.84450000000000014 1.5000000000000002 1.0000000180025095e-35 1.0000000180025095e-35 3.5000000000000004 9.5000000000000018 0.81850000000000012 1.0000000180025095e-35 1.0000000180025095e-35 1.0000000180025095e-35 1.5000000000000002 1.0000000180025095e-35 1.0000000180025095e-35 1.5000000000000002 1.0000000180025095e-35 1.0000000180025095e-35 1.5000000000000002
decision_type=2 2 2 2 2 2 2 2 2 2 2 2 2 2 2 2 2 2 2 2 2 2 2 2 2 2 2 2 2 2
left_child=2 9 4 5 8 15 14 18 10 11 20 -2 17 22 -5 19 -7 -13 -3 -4 -1 -16 -6 27 -14 -24 -15 -11 -19 -21
right_child=1 7 3 6 13 16 -8 -9 -10 23 -12 12 24 26 21 -17 -18 28 -20 29 -22 -23 25 -25 -26 -27 -28 -29 -30 -31
leaf_value=0.428519079463624 -0.2452235300270357 -1.0304173016530132 0.12122444554167776 -0.049446227238047515 0.70001542321675359 0.035889109151815118 -0.2452235300270357 -2.5518181713188399 0.12122444554167776 -0.75801893925539543 0.18979887837675766 -0.34554004319630571 -0.59686212998471844 0.42819161450882492 -0.2452235300270357 0.12122444554167776 -0.049446227238047515 -0.40595451534095572 -1.4169060873923489 0.058005442169903068 0.31025225696300057 -0.12065077542578498 0.60663359970511932 -0.93602398924956065 -0.4762362870590775 0.48705104804246419 0.25423184377677516 -0.59686212998471844 -0.4762362870590775 0.035889109151815118
leaf_weight=960 293 243 231 2317 670 887 2164 63 2455 276 2569 1124 831 147 591 3288 3817 92 212 3071 2723 299 57 132 187 360 160 122 830 1720
leaf_count=960 293 243 231 2317 670 887 2164 63 2455 276 2569 1124 831 147 591 3288 3817 92 212 3071 2723 299 57 132 187 360 160 122 830 1720
internal_value=0 -0.5763 0.0858525 -0.000502639 0.242952 0.0683504 -0.167243 -1.40829 0.190442 -0.463758 0.258373 -0.412559 -0.445857 0.569075 -0.0494462 0.121224 -0.0494462 -0.383224 -1.22394 0.0592135 0.341619 -0.191855 0.631046 -0.781166 -0.569249 0.513252 0.343056 -0.694692 -0.466369 0.0434775
internal_weight=0 4405 28486 18385 10101 13014 5371 518 8707 3887 6252 3357 3064 1394 3207 8310 4704 2046 455 5022 3683 890 1087 530 1018 417 307 398 922 4791
internal_count=32891 4405 28486 18385 10101 13014 5371 518 8707 3887 6252 3357 3064 1394 3207 8310 4704 2046 455 5022 3683 890 1087 530 1018 417 307 398 922 4791
is_linear=0
shrinkage=0.05


Tree=16
num_leaves=31
num_cat=0
split_feature=5 5 1 8 5 8 8 5 8 5 13 17 8 19 1 13 1 19 5 8 19 13 8 19 13 8 5 1 6 13
split_gain=606646 206577 96305.2 100224 58617.1 40908.8 32744.6 31770.9 23115.8 14362.6 10920.4 11122.2 10925 9369.83 11450.1 7994.42 6655.19 4897.84 3835.58 3828.33 3601.28 3091.83 1915.17 1551.8 3491.52 2689.94 1439.76 1169.89 987.252 949.476
threshold=1.5000000000000002 5.5000000000000009 1.0000000180025095e-35 786.50000000000011 14.500000000000002 99.500000000000014 74.500000000000014 2.5000000000000004 1940.5000000000002 7.5000000000000009 1.0000000180025095e-35 1.0000000180025095e-35 295.50000000000006 1.0000000180025095e-35 1.0000000180025095e-35 1.0000000180025095e-35 1.0000000180025095e-35 1.0000000180025095e-35 3.5000000000000004 3344.5000000000005 1.0000000180025095e-35 1.0000000180025095e-35 1451.5000000000002 1.0000000180025095e-35 1.0000000180025095e-35 1451.5000000000002 9.5000000000000018 1.0000000180025095e-35 4.5000000000000009 1.0000000180025095e-35
decision_type=2 2 2 2 2 2 2 2 2 2 2 2 2 2 2 2 2 2 2 2 2 2 2 2 2 2 2 2 2 2
left_child=2 7 3 6 9 15 -1 16 22 27 11 12 -8 -9 18 -4 -2 -14 -15 -10 -18 -16 -5 -7 25 -25 -11 -3 -20 -22
right_child=1 4 5 8 -6 23 10 13 19 26 -12 -13 17 14 21 -17 20 -19 28 -21 29 -23 -24 24 -26 -27 -28 -29 -30 -31
leaf_value=0.075196567817443494 -0.12911123301759805 -0.65727215954439466 -0.12911123301759805 0.40391764815482106 -2.3538617990911006 0.075196567817443494 0.13335496050476078 -0.28317739837606476 0.79507734341780445 -0.99152384809700844 0.33717644941511082 0.25546837830845254 0.33717644941511082 -0.29202710990421282 -0.6359290904593331 -0.02695733260007729 -0.19753070605996537 0.20544280494347955 -0.3683773148372706 1.3290233174237338 -0.28317739837606476 -0.47255737278390408 0.54937068188891691 -0.0088793069606254663 0.075196567817443494 0.075196567817443494 -1.2918222197294236 -0.86925542049863369 -0.47255737278390408 -0.19753070605996537
leaf_weight=4456 2242 356 2947 1136 75 519 4615 676 322 244 709 3284 310 982 743 342 270 2655 228 50 915 145 352 2754 280 278 195 173 558 108
leaf_count=4456 2242 356 2947 1136 75 519 4615 676 322 244 709 3284 310 982 743 342 270 2655 228 50 915 145 352 2754 280 278 195 173 558 108
internal_value=0 -0.380231 0.122008 0.183894 -1.03434 -0.0335012 0.143478 -0.2802 0.530875 -0.920539 0.191513 0.178539 0.145063 -0.390959 -0.436545 -0.129111 -0.175396 0.231213 -0.360976 0.883519 -0.26595 -0.584139 0.44005 0.0751966 0.040503 0.010404 -1.13796 -0.731143 -0.444728 -0.283177
internal_weight=0 7910 25009 17889 1043 7120 16029 6867 1860 968 11573 10864 7580 3332 2656 3289 3535 2965 1768 372 1293 888 1488 3831 3312 3032 439 529 786 1023
internal_count=32919 7910 25009 17889 1043 7120 16029 6867 1860 968 11573 10864 7580 3332 2656 3289 3535 2965 1768 372 1293 888 1488 3831 3312 3032 439 529 786 1023
is_linear=0
shrinkage=0.05


Tree=17
num_leaves=31
num_cat=0
split_feature=5 5 8 14 15 5 8 5 10 8 14 13 15 8 18 14 15 5 13 22 8 8 7 5 15 14 10 8 2 5
split_gain=534492 184680 93457 89763.2 102539 51677.4 42192.5 39953.4 23557.8 19327.8 16462.9 15953 14363.4 13742 17315.7 7806.26 8204.77 7042.7 5787.6 5412.82 4377.44 4196.26 4174.72 4031.41 3348.59 3630.46 2459.47 2229.56 1949.99 1627.97
threshold=1.5000000000000002 6.5000000000000009 1410.5000000000002 1.0000000180025095e-35 1.0000000180025095e-35 15.500000000000002 74.500000000000014 3.5000000000000004 0.9255000000000001 2647.5000000000005 1.0000000180025095e-35 1.0000000180025095e-35 1.0000000180025095e-35 527.50000000000011 1.0000000180025095e-35 1.0000000180025095e-35 1.0000000180025095e-35 9.5000000000000018 1.0000000180025095e-35 1.0000000180025095e-35 159.50000000000003 247.50000000000003 1.5000000000000002 2.5000000000000004 1.0000000180025095e-35 1.0000000180025095e-35 0.99950000000000017 848.50000000000011 32.500000000000007 4.5000000000000009
decision_type=2 2 2 2 2 2 2 2 2 2 2 2 2 2 2 2 2 2 2 2 2 2 2 2 2 2 2 2 2 2
left_child=2 7 3 4 11 17 22 10 -5 15 12 20 -2 14 18 16 -4 -3 21 -9 -1 -8 -6 -14 25 -21 -10 -15 -13 -26
right_child=1 5 9 8 6 -7 13 19 26 -11 -12 28 23 27 -16 -17 -18 -19 -20 24 -22 -23 -24 -25 29 -27 -28 -29 -30 -31
leaf_value=-0.1207434655662329 -0.34429453999962095 -0.84443228057256248 0.33498684469321516 0.33498684469321516 0.034287124405580988 -2.4668706974876464 0.075938688541237129 -0.34429453999962095 0.09580214916460203 1.054395710914682 -0.1207434655662329 0.29088223501869026 -0.14604910593209622 0.24169046646165249 0.22166017483782433 0.76462709990238376 0.55659176802643351 -1.2414313527869016 0.22166017483782433 -0.69997966968026515 -0.031838158336956378 0.14281301919088132 -0.070159763848450005 -0.27563726028835378 -0.39674638990651478 -0.38663256553355868 -0.1207434655662329 0.33498684469321516 0.075237846122709687 -0.53367960334861764
leaf_weight=3008 1436 453 263 2731 1828 62 3281 277 554 174 1194 213 1787 1023 3168 70 543 200 438 363 2131 2406 1997 922 578 137 156 838 211 512
leaf_count=3008 1436 453 263 2731 1828 62 3281 277 554 174 1194 213 1787 1023 3168 70 543 200 438 363 2131 2406 1997 922 578 137 156 838 211 512
internal_value=0 -0.356305 0.114818 0.0945356 0.054906 -1.12017 0.123019 -0.279787 0.330692 0.575438 -0.209824 -0.120743 -0.262706 0.172141 0.14716 0.474858 0.419835 -0.974534 0.0970781 -0.478765 -0.120743 0.0827351 -0.0202641 -0.190581 -0.517726 -0.630805 0.0464676 0.296161 0.185696 -0.463211
internal_weight=0 7921 25033 23983 20542 715 14979 7206 3441 1050 5339 5563 4145 11154 9293 876 806 653 6125 1867 5139 5687 3825 2709 1590 500 710 1861 424 1090
internal_count=32954 7921 25033 23983 20542 715 14979 7206 3441 1050 5339 5563 4145 11154 9293 876 806 653 6125 1867 5139 5687 3825 2709 1590 500 710 1861 424 1090
is_linear=0
shrinkage=0.05


Tree=18
num_leaves=31
num_cat=0
split_feature=5 5 14 1 7 5 5 6 17 21 14 1 13 5 5 6 5 13 5 7 13 1 5 5 14 1 12 14 13 6
split_gain=502818 174743 80324.8 95460.5 53376.3 45374.1 42867.5 34454.1 34295.6 22823.1 14746.3 13094.4 12139.1 10742.2 8018.93 7843.62 6208.45 5322.65 4251.12 3679.19 3290.87 3231.21 3100.87 1387.75 1339.38 1803.82 1303.57 1238.73 1216.17 1073.76
threshold=1.5000000000000002 7.5000000000000009 1.0000000180025095e-35 1.0000000180025095e-35 1.0000000180025095e-35 3.5000000000000004 16.500000000000004 1.0000000180025095e-35 1.0000000180025095e-35 1.0000000180025095e-35 1.0000000180025095e-35 1.0000000180025095e-35 1.0000000180025095e-35 1.0000000180025095e-35 4.5000000000000009 1.5000000000000002 9.5000000000000018 1.0000000180025095e-35 2.5000000000000004 1.0000000180025095e-35 1.0000000180025095e-35 1.0000000180025095e-35 1.0000000180025095e-35 1.0000000180025095e-35 1.0000000180025095e-35 1.0000000180025095e-35 0.24600000000000002 1.0000000180025095e-35 1.0000000180025095e-35 1.0000000180025095e-35
decision_type=2 2 2 2 2 2 2 2 2 2 2 2 2 2 2 2 2 2 2 2 2 2 2 2 2 2 2 2 2 2
left_child=2 5 3 4 -1 10 16 17 13 22 11 18 15 20 24 -9 -3 19 -2 -4 26 -16 -5 -17 25 -7 -6 -23 -24 -28
right_child=1 6 7 9 8 14 -8 12 -10 -11 -12 -13 -14 -15 21 23 -18 -19 -20 -21 -22 27 28 -25 -26 -27 29 -29 -30 -31
leaf_value=0.29842627670631389 -0.14871118237023001 -0.85058026572241807 0.55591115336948338 0.013632996100827278 0.18986399615061453 -0.36146545382868117 -2.5568571782948677 0.22523458891495537 0.18986399615061453 -0.12350100318429109 -0.12350100318429109 -0.35100549443155699 0.35986983734633515 0.013632996100827278 -0.51681358834994695 0.094048759089461698 -1.2680829610560698 0.76659308206014742 -0.27279397554306345 0.36853827566218283 0.18986399615061453 -0.75812260912912466 -0.098358792481826982 -0.047560135784530735 -0.35100549443155699 -0.48604290752079904 0.097740008759238467 -0.61908254697448706 -0.027659875896773725 0.053293016041531742
leaf_weight=3697 1804 253 667 1497 102 481 52 1038 3194 3103 1179 1442 399 4242 695 285 222 198 946 518 320 221 1010 424 282 228 2378 126 175 1817
leaf_count=3697 1804 253 667 1497 102 481 52 1038 3194 3103 1179 1442 399 4242 695 285 222 198 946 518 320 221 1010 424 282 228 2378 126 175 1817
internal_value=0 -0.351833 0.104831 0.068556 0.132346 -0.288716 -1.22753 0.325779 0.0813017 -0.10508 -0.212223 -0.260923 0.199613 0.0294719 -0.489788 0.138008 -1.05688 0.520127 -0.194582 0.475897 0.092953 -0.588047 0.013633 0.00962303 -0.384039 -0.435116 0.080116 -0.721352 -0.0689527 0.0751644
internal_weight=0 7931 25064 21535 15750 7404 527 3529 12053 5785 5371 4192 2146 8859 2033 1747 475 1383 2750 1185 4617 1042 2682 709 991 709 4297 347 1185 4195
internal_count=32995 7931 25064 21535 15750 7404 527 3529 12053 5785 5371 4192 2146 8859 2033 1747 475 1383 2750 1185 4617 1042 2682 709 991 709 4297 347 1185 4195
is_linear=0
shrinkage=0.05


Tree=19
num_leaves=31
num_cat=0
split_feature=5 8 5 8 15 5 8 14 15 14 5 14 14 10 15 5 10 6 13 8 5 13 10 8 13 14 9 12 8 6
split_gain=460418 129023 112713 62862 47317.9 35670.7 31233.8 29775.8 23977.2 18435.2 17899 17568.9 9201 8107.79 7928.91 6327.07 5328.54 5003.27 4609.32 3906.54 3750.6 3301.29 2810.92 2393.02 2253.14 2230.75 1930.6 1763.91 1562.54 1490.21
threshold=2.5000000000000004 74.500000000000014 7.5000000000000009 2283.5000000000005 1.0000000180025095e-35 16.500000000000004 786.50000000000011 1.0000000180025095e-35 1.0000000180025095e-35 1.0000000180025095e-35 4.5000000000000009 1.0000000180025095e-35 1.0000000180025095e-35 0.94450000000000001 1.0000000180025095e-35 1.5000000000000002 0.87550000000000006 1.5000000000000002 1.0000000180025095e-35 1330.5000000000002 10.500000000000002 1.0000000180025095e-35 0.83350000000000002 3344.5000000000005 1.0000000180025095e-35 1.0000000180025095e-35 0.69450000000000001 0.018500000000000003 16.500000000000004 1.5000000000000002
decision_type=2 2 2 2 2 2 2 2 2 2 2 2 2 2 2 2 2 2 2 2 2 2 2 2 2 2 2 2 2 2
left_child=1 7 10 4 11 20 9 8 26 17 12 -3 14 -11 -2 24 21 18 27 25 -4 -13 -12 -5 29 -8 -1 -6 -24 -10
right_child=2 3 5 23 6 -7 19 -9 15 13 22 16 -14 -15 -16 -17 -18 -19 -20 -21 -22 -23 28 -25 -26 -27 -28 -29 -30 -31
leaf_value=0.037293513450842218 -0.43876454935629711 0.037293513450842218 -0.86757332419608524 0.77236278918829371 0.27699660946076188 -2.3339525553087395 0.29299807838328012 0.037293513450842218 -0.015189351442261276 0.27699660946076188 -0.43876454935629711 0.28700464582715396 -0.20378136625845245 0.037293513450842218 -0.29129277878607979 -0.13652550734185606 0.046660365825668376 0.037293513450842218 0.27699660946076188 0.50108531423098379 -1.2301614652694384 0.50814912497607279 -0.64446431538897619 1.2247714861234029 0.037293513450842218 0.41666534381775677 -0.20378136625845245 0.1330421962881061 -0.51765559472014944 -0.078892035421177314
leaf_weight=90 729 4019 329 230 155 55 888 1776 2670 1235 99 497 704 276 1411 1716 182 821 426 578 156 136 687 55 230 119 2568 8821 253 970
leaf_count=90 729 4019 329 230 155 55 888 1776 2670 1235 99 497 704 276 1411 1716 182 821 426 578 156 136 687 55 230 119 2568 8821 253 970
internal_value=0 0.0702564 -0.477819 0.148726 0.137017 -1.15204 0.187065 -0.0741386 -0.117998 0.158795 -0.382696 0.0372935 -0.316776 0.276997 -0.370451 -0.0567586 0.286682 0.133542 0.144077 0.395198 -0.995562 0.354786 -0.560753 0.879281 -0.0212586 0.332245 -0.203781 0.136172 -0.596547 -0.0347617
internal_weight=0 28458 4423 18438 18153 540 13319 10020 8244 11734 3883 4834 2844 1511 2140 5586 815 10223 9402 1585 485 633 1039 285 3870 1007 2658 8976 940 3640
internal_count=32881 28458 4423 18438 18153 540 13319 10020 8244 11734 3883 4834 2844 1511 2140 5586 815 10223 9402 1585 485 633 1039 285 3870 1007 2658 8976 940 3640
is_linear=0
shrinkage=0.05


Tree=20
num_leaves=31
num_cat=0
split_feature=5 8 5 8 14 1 14 5 5 1 10 21 8 8 13 7 1 6 21 13 13 21 6 22 14 6 1 1 10 8
split_gain=412180 116708 106688 57529.7 40814 30908.1 26974.8 25589.1 24847 20322.4 17902.8 16092.5 11003 10979.1 8430.92 6444.38 5445.29 5575.48 4754.85 3140.61 2847.06 2683.98 2636.79 2351.19 2059.24 1962.85 1938.2 1873.92 1417.27 1305
threshold=2.5000000000000004 74.500000000000014 8.5000000000000018 1451.5000000000002 1.0000000180025095e-35 1.0000000180025095e-35 1.0000000180025095e-35 16.500000000000004 5.5000000000000009 1.0000000180025095e-35 0.90950000000000009 1.0000000180025095e-35 2283.5000000000005 527.50000000000011 1.0000000180025095e-35 1.5000000000000002 1.0000000180025095e-35 4.5000000000000009 1.0000000180025095e-35 1.0000000180025095e-35 1.0000000180025095e-35 1.0000000180025095e-35 1.0000000180025095e-35 1.0000000180025095e-35 1.0000000180025095e-35 1.5000000000000002 1.0000000180025095e-35 1.0000000180025095e-35 0.96450000000000002 1129.5000000000002
decision_type=2 2 2 2 2 2 2 2 2 2 2 2 2 2 2 2 2 2 2 2 2 2 2 2 2 2 2 2 2 2
left_child=1 6 8 4 5 13 9 -4 14 15 -6 -5 27 20 16 -1 17 -2 -15 -17 25 -11 -12 -10 -18 -3 -25 -13 -8 -20
right_child=2 3 7 11 10 -7 28 -9 23 21 22 12 -14 18 -16 19 24 -19 29 -21 -22 -23 -24 26 -26 -27 -28 -29 -30 -31
leaf_value=0.024260679857956397 -0.21611928971257335 0.12522923954400686 -1.0538338928885715 0.95851370065153552 0.31875818087877672 0.039351510585093265 0.039351510585093265 -2.2840112457492139 -0.48152490717964574 -0.12068404385047471 0.17907886295902969 0.436704410158886 0.69738422246195197 0.31875818087877672 -0.18918796548017142 -0.10874694678291408 -0.48152490717964574 -0.37690432964995618 0.18834578247896216 -0.032785352447689119 0.18834578247896216 -0.18918796548017142 0.039351510585093265 -0.61330994631011215 -0.37690432964995618 0.091211682792291915 -0.80689954285719612 0.31875818087877672 -0.18918796548017142 0.2998646889384643
leaf_weight=1845 988 8162 333 167 1872 3779 1497 50 111 1459 158 392 249 451 498 3471 692 940 1082 273 474 1207 418 404 224 742 163 191 277 284
leaf_count=1845 988 8162 333 167 1872 3779 1497 50 111 1459 158 392 249 451 498 3471 692 940 1082 273 474 1207 418 404 224 742 163 191 277 284
internal_value=0 0.0706106 -0.448987 0.145319 0.124069 0.0930613 -0.0666163 -1.2418 -0.372004 -0.108317 0.313162 0.513447 0.418921 0.143072 -0.315148 -0.0521801 -0.350743 -0.301393 0.255534 -0.0898314 0.121158 -0.189188 0.0393995 -0.647902 -0.452416 0.113691 -0.694495 0.318758 0.0393515 0.198953
internal_weight=0 28450 4403 18421 17422 14974 10029 383 4020 8255 2448 999 832 11195 3342 5589 2844 1928 1817 3744 9378 2666 576 678 916 8904 567 583 1774 1366
internal_count=32853 28450 4403 18421 17422 14974 10029 383 4020 8255 2448 999 832 11195 3342 5589 2844 1928 1817 3744 9378 2666 576 678 916 8904 567 583 1774 1366
is_linear=0
shrinkage=0.05


Tree=21
num_leaves=31
num_cat=0
split_feature=6 6 14 1 6 8 6 10 14 17 1 8 8 8 19 8 8 19 6 10 6 8 22 22 1 1 8 22 6 8
split_gain=310234 103545 74038.8 72756.1 46293.1 45675.9 25872.5 20644.2 19739.2 18647.7 14661.6 13459.5 12494.5 11032.6 5948.19 5341.16 5264.53 4947.21 3644.43 3473.05 3418.67 3194.64 2448.02 2351.63 2314.86 2061.67 1804.3 1803.39 1704.61 1703.76
threshold=1.5000000000000002 12.500000000000002 1.0000000180025095e-35 1.0000000180025095e-35 4.5000000000000009 996.50000000000011 25.500000000000004 0.88550000000000006 1.0000000180025095e-35 1.0000000180025095e-35 1.0000000180025095e-35 295.50000000000006 2283.5000000000005 23.500000000000004 1.0000000180025095e-35 89.500000000000014 123.50000000000001 1.0000000180025095e-35 5.5000000000000009 0.36750000000000005 2.5000000000000004 187.50000000000003 1.0000000180025095e-35 1.0000000180025095e-35 1.0000000180025095e-35 1.0000000180025095e-35 527.50000000000011 1.0000000180025095e-35 15.500000000000002 1672.5000000000002
decision_type=2 2 2 2 2 2 2 2 2 2 2 2 2 2 2 2 2 2 2 2 2 2 2 2 2 2 2 2 2 2
left_child=2 4 3 5 8 9 23 16 10 11 15 -1 29 14 -6 20 27 19 -16 -18 -2 -9 -20 -3 -19 -24 -13 -4 -25 -7
right_child=1 6 7 -5 13 12 -8 21 -10 -11 -12 26 -14 -15 18 -17 17 24 22 -21 -22 -23 25 28 -26 -27 -28 -29 -30 -31
leaf_value=0.042800471808109496 -0.095168482161546164 -0.5777740319452247 0.4080572647833427 -0.050710901798736843 -0.32465898036951396 0.3097056147207482 -1.9604857620038094 -0.0015221984673052778 -0.050710901798736843 0.21296927359731296 -0.23498538127766402 0.1263826133845678 0.78256084033380757 -0.23498538127766402 -0.34562863407860944 -0.050710901798736843 0.63261127333123679 0.76878269560907264 -0.4329169868439835 0.4080572647833427 -0.17298190574194186 0.24352123898939348 -0.47322780470736325 -0.71331795529963882 0.47595289858796125 -0.5777740319452247 0.20442119040683743 0.27772934117550058 -1.0490789375695071 0.46690046396175727
leaf_weight=6234 1828 91 99 4977 532 738 55 354 1693 3158 2114 1888 206 889 478 609 192 214 147 753 1812 208 645 151 154 294 1268 633 128 264
leaf_count=6234 1828 91 99 4977 532 738 55 354 1693 3158 2114 1888 206 889 478 609 192 214 147 753 1812 208 645 151 154 294 1268 633 128 264
internal_value=0 -0.211916 0.110494 0.0756988 -0.182178 0.136312 -0.97337 0.359897 -0.119725 0.107939 -0.168102 0.0725213 0.429372 -0.350246 -0.414333 -0.110978 0.433526 0.49441 -0.468122 0.429044 -0.139626 0.0905177 -0.520205 -0.802453 0.654263 -0.560516 0.15801 0.321705 -0.883117 0.353235
internal_weight=0 11466 21340 18733 11041 13756 425 2607 8056 12548 6363 9390 1208 2985 2096 4249 2045 1313 1564 945 3640 562 1086 370 368 939 3156 732 279 1002
internal_count=32806 11466 21340 18733 11041 13756 425 2607 8056 12548 6363 9390 1208 2985 2096 4249 2045 1313 1564 945 3640 562 1086 370 368 939 3156 732 279 1002
is_linear=0
shrinkage=0.05


Tree=22
num_leaves=31
num_cat=0
split_feature=5 5 8 1 8 14 5 21 17 21 5 14 13 14 14 1 8 8 1 1 21 5 8 21 5 13 21 14 1 5
split_gain=339547 119573 60259.6 42783 35357.8 36957.8 26040.2 19845.8 16433.3 16266.2 16254.5 13219.7 6913.64 6873.56 5454.89 5075.58 4980.13 4413.07 3587.2 3485.36 3175.68 2983.64 2870.76 2606.14 1678.43 1515.94 1510.61 1310.41 1107.13 1099.14
threshold=1.5000000000000002 5.5000000000000009 287.50000000000006 1.0000000180025095e-35 2047.5000000000002 1.0000000180025095e-35 10.500000000000002 1.0000000180025095e-35 1.0000000180025095e-35 1.0000000180025095e-35 2.5000000000000004 1.0000000180025095e-35 1.0000000180025095e-35 1.0000000180025095e-35 1.0000000180025095e-35 1.0000000180025095e-35 536.50000000000011 103.50000000000001 1.0000000180025095e-35 1.0000000180025095e-35 1.0000000180025095e-35 14.500000000000002 2867.5000000000005 1.0000000180025095e-35 4.5000000000000009 1.0000000180025095e-35 1.0000000180025095e-35 1.0000000180025095e-35 1.0000000180025095e-35 6.5000000000000009
decision_type=2 2 2 2 2 2 2 2 2 2 2 2 2 2 2 2 2 2 2 2 2 2 2 2 2 2 2 2 2 2
left_child=2 10 3 8 5 9 18 -5 11 16 14 12 17 15 19 24 25 -1 29 -2 -6 -8 -22 -17 -12 28 -15 -20 -4 -3
right_child=1 6 4 7 20 -7 21 -9 -10 -11 13 -13 -14 26 -16 23 -18 -19 27 -21 22 -23 -24 -25 -26 -27 -28 -29 -30 -31
leaf_value=0.00073696060837372688 -0.12946972532047485 -0.49650088387448882 0.21321986348645106 0.00073696060837372688 0.99583700599384972 0.4218941299822605 -1.0628371262368357 -0.097412363368920452 0.12532924777935345 0.12532924777935345 -0.25591325376356927 0.12532924777935345 0.12532924777935345 -0.21035287002958356 -0.097412363368920452 -0.35838240301497298 0.36537465316614903 0.059822416148589325 -0.9473301500214204 -0.21035287002958356 0.46829381855052027 -1.6375126774360738 0.81205255805894172 -0.49650088387448882 -0.35838240301497298 0.28450929119682578 -0.49650088387448882 -0.69604623837528834 0.12532924777935345 -0.64119974127918322
leaf_weight=4307 1779 224 735 2757 66 934 126 2060 3326 4038 1407 1498 544 804 743 544 803 3185 150 955 239 70 103 279 258 174 68 119 329 351
leaf_count=4307 1779 224 735 2757 66 934 126 2060 3326 4038 1407 1498 544 804 743 544 803 3185 150 955 239 70 103 279 258 174 68 119 329 351
internal_value=0 -0.285503 0.0906783 0.0404552 0.210203 0.183571 -0.783816 -0.0865804 0.0880543 0.137552 -0.209185 0.0466592 0.0182694 -0.287609 -0.133096 -0.332982 0.268012 0.0044597 -0.656116 -0.178745 0.660217 -1.30371 0.582033 -0.435717 -0.281048 0.203644 -0.210353 -0.818205 0.177144 -0.573887
internal_weight=0 7877 25098 17677 7421 7013 1040 4817 12860 6079 6837 9534 8036 3360 3477 2488 2041 7492 844 2734 408 196 342 823 1665 1238 872 269 1064 575
internal_count=32975 7877 25098 17677 7421 7013 1040 4817 12860 6079 6837 9534 8036 3360 3477 2488 2041 7492 844 2734 408 196 342 823 1665 1238 872 269 1064 575
is_linear=0
shrinkage=0.05


Tree=23
num_leaves=31
num_cat=0
split_feature=5 5 8 1 5 8 14 24 14 21 21 1 14 10 21 8 5 5 21 5 8 8 1 10 5 22 5 22 8 1
split_gain=303164 118010 58066.7 45931.4 36703.9 34564.1 26577.6 15957 15712 14151.1 13228.8 12405.9 11571.2 8254.53 7688.23 6863.04 5218.81 5192.65 4693.79 4001.09 3949.85 3789.77 2469.33 1949.59 1875.26 1707.06 1265.38 1125.22 1121.28 1090.81
threshold=1.5000000000000002 5.5000000000000009 287.50000000000006 1.0000000180025095e-35 12.500000000000002 2047.5000000000002 1.0000000180025095e-35 1.0000000180025095e-35 1.0000000180025095e-35 1.0000000180025095e-35 1.0000000180025095e-35 1.0000000180025095e-35 1.0000000180025095e-35 0.96450000000000002 1.0000000180025095e-35 101.50000000000001 3.5000000000000004 16.500000000000004 1.0000000180025095e-35 9.5000000000000018 514.50000000000011 3344.5000000000005 1.0000000180025095e-35 0.96650000000000003 3.5000000000000004 1.0000000180025095e-35 2.5000000000000004 1.0000000180025095e-35 190.50000000000003 1.0000000180025095e-35
decision_type=2 2 2 2 2 2 2 2 2 2 2 2 2 2 2 2 2 2 2 2 2 2 2 2 2 2 2 2 2 2
left_child=2 8 3 7 19 6 10 12 11 -5 20 16 15 -10 24 -1 26 -6 -7 22 -4 29 -3 -14 -13 -17 -2 -24 -27 -20
right_child=1 4 5 9 17 18 -8 -9 13 -11 -12 14 23 -15 -16 25 -18 -19 21 -21 -22 -23 27 -25 -26 28 -28 -29 -30 -31
leaf_value=-0.0062510918150930801 -0.12451899576112041 -0.51472460414778831 0.18668543825086675 -0.0062510918150930801 -1.1340913428470145 1.0415424450806208 0.40900795797032208 0.11692694398485273 -0.095176127874658858 -0.095176127874658858 0.11692694398485273 -0.26544128040508097 0.11692694398485273 -0.3581303813136541 -0.48244805845598304 0.11692694398485273 -0.26544128040508097 -1.9621981205542884 0.54801505615191204 -0.89785486121553115 0.32960136473341956 0.95001175910757307 -0.6223128199983895 -0.0062510918150930801 -0.40159029432731641 0.03218977681440615 -0.19712357560881888 -0.74431467747006175 0.088040540946210263 0.40900795797032208
leaf_weight=4553 1771 504 1166 2756 81 65 963 3289 1246 2024 3982 877 1247 333 652 222 723 55 238 149 863 52 58 253 267 1745 951 194 1537 55
leaf_count=4553 1771 504 1166 2756 81 65 963 3289 1246 2024 3982 877 1247 333 652 222 723 55 238 149 863 52 58 253 267 1745 951 194 1537 55
internal_value=0 -0.273116 0.0827641 0.0334307 -0.767794 0.200423 0.173896 0.0826739 -0.197102 -0.0951761 0.134581 -0.240131 0.0410589 -0.0951761 -0.346765 0.0148311 -0.184118 -1.52669 0.64412 -0.645988 0.248133 0.555434 -0.590774 0.116927 -0.266583 0.0706306 -0.1502 -0.729901 0.0568666 0.470642
internal_weight=0 7861 25010 17626 1041 7384 6974 12846 6820 4780 6011 5241 9557 1579 1796 8057 3445 136 410 905 2029 345 756 1500 1144 3504 2722 252 3282 293
internal_count=32871 7861 25010 17626 1041 7384 6974 12846 6820 4780 6011 5241 9557 1579 1796 8057 3445 136 410 905 2029 345 756 1500 1144 3504 2722 252 3282 293
is_linear=0
shrinkage=0.05


Tree=24
num_leaves=31
num_cat=0
split_feature=5 5 8 1 8 5 5 13 1 10 17 8 8 21 19 1 10 21 7 1 10 21 21 8 5 5 21 5 19 21
split_gain=278526 80591.9 79124.9 42207 41238.5 22669 16829.8 16579.4 20999 11307.8 9685.03 9632.84 5530.61 5167.36 4962.12 5110.7 4462.52 4414.6 4202.91 2969.87 2133.58 1985.63 1815.77 1788.27 1355.95 1350.83 1254.94 911.564 879.317 830.521
threshold=2.5000000000000004 9.5000000000000018 74.500000000000014 1.0000000180025095e-35 1017.5000000000001 4.5000000000000009 16.500000000000004 1.0000000180025095e-35 1.0000000180025095e-35 0.82150000000000001 1.0000000180025095e-35 1940.5000000000002 291.50000000000006 1.0000000180025095e-35 1.0000000180025095e-35 1.0000000180025095e-35 0.83350000000000002 1.0000000180025095e-35 1.5000000000000002 1.0000000180025095e-35 0.83350000000000002 1.0000000180025095e-35 1.0000000180025095e-35 3344.5000000000005 6.5000000000000009 1.5000000000000002 1.0000000180025095e-35 3.5000000000000004 1.0000000180025095e-35 1.0000000180025095e-35
decision_type=2 2 2 2 2 2 2 2 2 2 2 2 2 2 2 2 2 2 2 2 2 2 2 2 2 2 2 2 2 2
left_child=2 5 7 4 9 14 28 8 18 -4 12 17 -11 -14 -2 27 -7 -6 29 24 -20 -12 -5 -13 -18 -22 -21 -16 -3 -1
right_child=1 6 3 22 11 16 -8 -9 -10 10 21 23 13 -15 15 -17 19 -19 20 26 25 -23 -24 -25 -26 -27 -28 -29 -30 -31
leaf_value=0.025886386342110108 -0.16232203302213707 -0.75477006538841129 0.2797658274932539 0.093093450676113798 0.49840231744837588 -0.36716560687473332 -1.9748326923449835 0.025886386342110108 -0.16232203302213707 0.093093450676113798 0.19994208409250819 0.58393444118115145 0.19994208409250819 0.12464930509826221 -0.1906110630961434 -0.36716560687473332 -0.4507946545570225 0.2797658274932539 -0.017438565425838128 -0.57921171095462576 -0.047127371767736716 0.15499631546670661 0.025886386342110108 0.94714923029144615 -0.56480870312970333 -0.097432876684728179 -0.75477006538841129 -0.27627462085882282 -1.0628043350385081 -0.013451281722654333
leaf_weight=594 578 75 620 2485 228 114 55 976 2986 4948 629 291 1271 2210 974 756 525 726 215 305 2132 2618 2424 55 260 1833 69 525 150 1346
leaf_count=594 578 75 620 2485 228 114 55 976 2986 4948 629 291 1271 2210 974 756 525 726 215 305 2132 2618 2424 55 260 1833 69 525 150 1346
internal_value=0 -0.376174 0.0515304 0.11292 0.160301 -0.319279 -1.19026 -0.0611473 -0.0878499 0.131871 0.120118 0.42766 0.0930935 0.156205 -0.239796 -0.276711 -0.494535 0.342464 -0.0325437 -0.534424 -0.0607635 0.193503 0.0258864 0.654341 -0.471884 -0.075081 -0.657734 -0.221432 -0.959714 0.0258864
internal_weight=0 4386 28587 18505 13596 4106 280 10082 9106 12296 11676 1300 8429 3481 2833 2255 1273 954 6120 1159 4180 3247 4909 346 785 3965 374 1499 225 1940
internal_count=32973 4386 28587 18505 13596 4106 280 10082 9106 12296 11676 1300 8429 3481 2833 2255 1273 954 6120 1159 4180 3247 4909 346 785 3965 374 1499 225 1940
is_linear=0
shrinkage=0.05


Tree=25
num_leaves=31
num_cat=0
split_feature=7 15 14 7 7 17 7 14 14 14 13 13 22 13 9 15 19 7 7 21 7 21 7 21 14 7 9 12 7 19
split_gain=149877 62450.9 44827.5 43054.3 33182.6 21733.1 17101.6 16932.1 14485.2 11207.7 10222.4 7341.32 7120.6 6744.26 5785.92 4659.69 4378.92 3974.88 3574.93 3493.74 3242.56 3361.06 2659.97 1837.38 1419.22 1148.81 1106.59 837.89 775.202 583.835
threshold=3.5000000000000004 1.0000000180025095e-35 1.0000000180025095e-35 1.0000000180025095e-35 9.5000000000000018 1.0000000180025095e-35 29.500000000000004 1.0000000180025095e-35 1.0000000180025095e-35 1.0000000180025095e-35 1.0000000180025095e-35 1.0000000180025095e-35 1.0000000180025095e-35 1.0000000180025095e-35 0.77050000000000007 1.0000000180025095e-35 1.0000000180025095e-35 1.5000000000000002 1.5000000000000002 1.0000000180025095e-35 20.500000000000004 1.0000000180025095e-35 7.5000000000000009 1.0000000180025095e-35 1.0000000180025095e-35 16.500000000000004 0.95050000000000001 0.0015000000000000002 4.5000000000000009 1.0000000180025095e-35
decision_type=2 2 2 2 2 2 2 2 2 2 2 2 2 2 2 2 2 2 2 2 2 2 2 2 2 2 2 2 2 2
left_child=1 2 -1 9 8 7 12 13 11 19 18 15 -6 17 -12 -2 -11 23 29 -3 21 24 28 27 25 -14 -15 -5 -17 -4
right_child=4 3 10 5 6 -7 -8 -9 -10 16 14 -13 20 26 -16 22 -18 -19 -20 -21 -22 -23 -24 -25 -26 -27 -28 -29 -30 -31
leaf_value=-0.072402598212970501 -0.26832804195012727 0.29535556305007243 0.22412077383770887 0.15107293864628621 -0.26832804195012727 0.15107293864628621 -1.0939429801489626 0.15107293864628621 -0.072402598212970501 0.36513028151698806 0.74290299997367759 -0.072402598212970501 -0.3658669504171943 0.15107293864628621 0.18372820511460305 -0.12379560168426534 0.71249821983700534 -0.047062936933850157 0.066587571776729013 0.18344158053430307 -0.6761712924868335 -0.53592691693687178 -0.26832804195012727 -0.0077334377971432396 -0.26849382569424945 -0.53592691693687178 -0.013734881666799387 0.049710428200355553 -0.18326969783258482 0.3621943828649819
leaf_weight=5912 1318 962 338 50 406 3295 79 1372 1646 337 136 496 452 383 75 1041 136 4163 448 2745 123 190 350 2497 378 67 115 1927 1311 126
leaf_count=5912 1318 962 338 50 406 3295 79 1372 1646 337 136 496 452 383 75 1041 136 4163 448 2745 123 190 350 2497 378 67 115 1927 1311 126
internal_value=0 0.0527306 -0.0724026 0.102137 -0.197536 0.0595151 -0.393224 0.0238332 -0.143432 0.242631 0.242848 -0.194459 -0.3557 -0.00145259 0.552998 -0.218348 0.471416 -0.0119266 0.168468 0.212843 -0.42686 -0.395683 -0.178047 0.0207833 -0.349596 -0.405539 0.151073 0.0567293 -0.157265 0.265077
internal_weight=0 25017 7035 17982 7857 13802 1695 10507 6162 4180 1123 4516 1616 9135 211 4020 473 8637 912 3707 1210 1087 2702 4474 897 519 498 1977 2352 464
internal_count=32874 25017 7035 17982 7857 13802 1695 10507 6162 4180 1123 4516 1616 9135 211 4020 473 8637 912 3707 1210 1087 2702 4474 897 519 498 1977 2352 464
is_linear=0
shrinkage=0.05


Tree=26
num_leaves=31
num_cat=0
split_feature=5 5 14 1 8 10 5 18 14 8 13 1 8 9 8 10 13 5 19 13 5 5 8 13 8 10 10 14 8 8
split_gain=216707 77870.1 51270.2 62101.7 36060.2 21838.4 20399.6 15112.2 13185.9 12941.6 12391.3 10390.9 9930.39 7273.38 6941.76 5724.32 4607.99 4598.13 4293.38 3739.51 3670.98 3249.3 3118.45 2761.6 2997.11 2657.63 2123.71 1653.77 1401.79 1295.62
threshold=1.5000000000000002 5.5000000000000009 1.0000000180025095e-35 1.0000000180025095e-35 1057.5000000000002 0.91150000000000009 12.500000000000002 1.0000000180025095e-35 1.0000000180025095e-35 105.50000000000001 1.0000000180025095e-35 1.0000000180025095e-35 115.50000000000001 0.75550000000000017 2647.5000000000005 0.96450000000000002 1.0000000180025095e-35 2.5000000000000004 1.0000000180025095e-35 1.0000000180025095e-35 7.5000000000000009 2.5000000000000004 146.50000000000003 1.0000000180025095e-35 520.50000000000011 0.33550000000000008 0.83550000000000002 1.0000000180025095e-35 59.500000000000007 1624.0000000000002
decision_type=2 2 2 2 2 2 2 2 2 2 2 2 2 2 2 2 2 2 2 2 2 2 2 2 2 2 2 2 2 2
left_child=2 8 3 4 7 10 20 9 11 -1 12 17 -4 26 29 -10 -5 -2 25 22 -3 -13 -7 24 -11 -14 -12 -22 -15 -6
right_child=1 6 5 16 14 19 -8 -9 15 23 13 21 18 28 -16 -17 -18 -19 -20 -21 27 -23 -24 -25 -26 -27 -28 -29 -30 -31
leaf_value=0.0067789362626879627 -0.10241604438400892 -0.45018144471066024 0.16465780548157841 -0.079904605662150241 0.26614372012368331 -0.079904605662150241 -1.2244929563453182 0.16847236230373663 -0.079904605662150241 0.065368566563249145 0.75458536581933044 -0.24124749263138115 0.48470269562155938 0.16465780548157841 0.69192469513335197 -0.29875046139483857 0.0067789362626879627 -0.21806968762796167 0.50263568500509936 0.16465780548157841 -0.76353521116411061 -0.38029973330889705 0.13112843914524369 0.21336774756263824 0.14935592635058453 0.26029852761298139 0.47475386798060654 -0.55900005187817292 0.38218227028181512 0.39315139823555945
leaf_weight=4602 1808 530 979 5370 601 477 126 3184 1266 4912 258 944 156 57 142 352 447 1663 365 117 241 831 202 437 1358 762 55 142 107 370
leaf_count=4602 1808 530 979 5370 601 477 126 3184 1266 4912 258 944 156 57 142 352 447 1663 365 117 241 831 202 437 1358 762 55 142 107 370
internal_value=0 -0.230081 0.0702715 0.0411326 0.0934625 0.246553 -0.632538 0.0723282 -0.168745 0.0451968 0.313441 -0.208778 0.263537 0.544906 0.367109 -0.0799046 -0.0799046 -0.158061 0.355939 0.0158745 -0.54462 -0.307233 -0.0348139 0.0922673 0.0836636 0.295205 0.685758 -0.667819 0.26375 0.316306
internal_weight=0 7903 24958 21423 15606 3535 1039 14493 6864 11309 2739 5246 2262 477 1113 1618 5817 3471 1283 796 913 1775 679 6707 6270 918 313 383 164 971
internal_count=32861 7903 24958 21423 15606 3535 1039 14493 6864 11309 2739 5246 2262 477 1113 1618 5817 3471 1283 796 913 1775 679 6707 6270 918 313 383 164 971
is_linear=0
shrinkage=0.05


Tree=27
num_leaves=31
num_cat=0
split_feature=5 5 8 8 14 1 14 5 10 5 1 8 17 8 13 1 7 10 1 8 13 21 8 5 21 13 21 12 8 10
split_gain=204698 66834.2 61967 33298.8 26031.4 21665.6 19786.3 18297.8 16502.4 14209 13756.5 13362.4 7214.54 5174.53 4421.91 3355.43 3309.52 2908.06 3002.7 2779.66 2511.16 2404.8 2254.85 2160.84 1992.08 1766.96 1586.44 1485.53 1205.11 1152.72
threshold=2.5000000000000004 9.5000000000000018 74.500000000000014 2283.5000000000005 1.0000000180025095e-35 1.0000000180025095e-35 1.0000000180025095e-35 4.5000000000000009 0.90950000000000009 15.500000000000002 1.0000000180025095e-35 848.50000000000011 1.0000000180025095e-35 121.50000000000001 1.0000000180025095e-35 1.0000000180025095e-35 1.5000000000000002 0.83350000000000002 1.0000000180025095e-35 3344.5000000000005 1.0000000180025095e-35 1.0000000180025095e-35 1587.0000000000002 6.5000000000000009 1.0000000180025095e-35 1.0000000180025095e-35 1.0000000180025095e-35 0.083500000000000019 181.50000000000003 0.9195000000000001
decision_type=2 2 2 2 2 2 2 2 2 2 2 2 2 2 2 2 2 2 2 2 2 2 2 2 2 2 2 2 2 2
left_child=2 7 6 4 5 11 10 14 13 -3 16 12 20 -6 17 23 -1 -2 29 -5 27 -14 26 -9 -17 -18 -13 -4 -10 -19
right_child=1 9 3 19 8 -7 -8 15 28 -11 -12 22 21 -15 -16 24 25 18 -20 -21 -22 -23 -24 -25 -26 -27 -28 -29 -30 -31
leaf_value=0.012886494334553798 -0.138257569631348 -0.84766184219445762 0.17410831329121063 0.51170170825152173 0.16895719270488047 0.022683707568362521 0.022683707568362521 -0.31423798943570075 0.022683707568362521 -1.7557356692173265 -0.138257569631348 0.28409526502445354 0.17410831329121063 0.3495718397571676 -0.138257569631348 -0.47594625101575644 -0.083620058816467072 -0.19546819854923592 -0.31423798943570075 0.91179970250331932 0.17410831329121063 0.11941633386778482 0.3495718397571676 -0.4569033907963877 -0.67886849471565547 -0.028028964769911343 0.17900702776435096 0.065524738457277396 0.16698528876862465 -0.26249329299097018
leaf_weight=1847 191 203 86 247 425 3978 1771 560 397 61 2686 210 599 1431 406 353 3443 1395 703 65 489 2545 318 296 71 276 775 6592 151 141
leaf_count=1847 191 203 86 247 425 3978 1771 560 397 61 2686 210 599 1431 406 353 3443 1395 703 65 489 2545 318 296 71 276 775 6592 151 141
internal_value=0 -0.321808 0.045293 0.0999972 0.0910213 0.0673615 -0.0546298 -0.271521 0.244017 -1.08622 -0.0924272 0.108366 0.0892134 0.315231 -0.200093 -0.428383 -0.0418028 -0.233338 -0.252679 0.608122 0.0655247 0.152546 0.259003 -0.36678 -0.547026 -0.0689444 0.218619 0.0655247 0.0226837 -0.210749
internal_weight=0 4380 28331 18308 17996 15592 10023 4116 2404 264 8252 11614 10311 1856 2836 1280 5566 2430 2239 312 7167 3144 1303 856 424 3719 985 6678 548 1536
internal_count=32711 4380 28331 18308 17996 15592 10023 4116 2404 264 8252 11614 10311 1856 2836 1280 5566 2430 2239 312 7167 3144 1303 856 424 3719 985 6678 548 1536
is_linear=0
shrinkage=0.05


Tree=28
num_leaves=31
num_cat=0
split_feature=5 5 8 8 14 1 5 14 1 21 10 13 5 8 1 1 7 1 13 14 21 1 10 14 13 21 8 21 10 7
split_gain=190488 54393.3 47242.7 31496.3 29245.9 18692.3 16259.1 15800.6 11444.2 11361.8 11217.8 8630 6869.54 5270.44 5166.78 4130.8 3579.02 2219.24 2195.04 1823.26 1818.32 1726.6 1528.01 1391.44 1350.49 1137.93 1109.83 838.444 771.744 567.639
threshold=2.5000000000000004 7.5000000000000009 74.500000000000014 1540.0000000000002 1.0000000180025095e-35 1.0000000180025095e-35 14.500000000000002 1.0000000180025095e-35 1.0000000180025095e-35 1.0000000180025095e-35 0.9425 1.0000000180025095e-35 4.5000000000000009 801.50000000000011 1.0000000180025095e-35 1.0000000180025095e-35 1.5000000000000002 1.0000000180025095e-35 1.0000000180025095e-35 1.0000000180025095e-35 1.0000000180025095e-35 1.0000000180025095e-35 0.90450000000000019 1.0000000180025095e-35 1.0000000180025095e-35 1.0000000180025095e-35 2437.0000000000005 1.0000000180025095e-35 0.80950000000000022 2.5000000000000004
decision_type=2 2 2 2 2 2 2 2 2 2 2 2 2 2 2 2 2 2 2 2 2 2 2 2 2 2 2 2 2 2
left_child=2 11 7 4 5 13 17 8 16 -5 -6 12 15 18 26 22 27 -3 29 21 -15 -14 23 -2 -18 -10 -11 -1 -17 -4
right_child=1 6 3 9 10 -7 -8 -9 25 14 -12 -13 19 20 -16 28 24 -19 -20 -21 -22 -23 -24 -25 -26 -27 -28 -29 -30 -31
leaf_value=0.023483116362403651 -0.19748481586355793 -0.56098691620982621 0.082585085455640084 0.77218648129777545 0.23008841017589632 0.023483116362403651 -1.4327954174127691 0.023483116362403651 -0.083760995936631888 0.3456406649242601 0.023483116362403651 -0.13256481365441233 -0.38183475315917492 0.23008841017589632 0.23008841017589632 -0.25425688268730035 -0.074481403738510796 -0.84731376963226424 0.14344174838064297 -0.31912327286885528 0.14696343516903207 -0.51606999332094972 -0.25425688268730035 -0.13256481365441233 -0.020747237559773715 -0.13256481365441233 0.52058879682837533 -0.016503259478506033 -0.31912327286885528 0.059165684014142822
leaf_weight=556 1309 309 8775 152 2056 3806 81 1773 1512 363 393 604 445 222 186 81 3497 128 533 231 801 163 153 210 259 1168 167 1312 741 937
leaf_count=556 1309 309 8775 152 2056 3806 81 1773 1512 363 393 604 445 222 186 81 3497 128 533 231 801 163 153 210 259 1168 167 1312 741 937
internal_value=0 -0.308279 0.0431489 0.0908186 0.0761913 0.050096 -0.787883 -0.0438524 -0.0777885 0.383986 0.230088 -0.244257 -0.278243 0.0948483 0.296791 -0.235707 -0.0349572 -0.65349 0.0839631 -0.40254 0.20292 -0.452715 -0.18939 -0.168532 -0.0630587 -0.132565 0.405116 0.0215642 -0.319123 0.0778134
internal_weight=0 4455 28468 18391 17523 15074 518 10077 8304 868 2449 3937 3333 11268 716 2494 5624 437 10245 839 1023 608 1672 1519 3756 2680 530 1868 822 9712
internal_count=32923 4455 28468 18391 17523 15074 518 10077 8304 868 2449 3937 3333 11268 716 2494 5624 437 10245 839 1023 608 1672 1519 3756 2680 530 1868 822 9712
is_linear=0
shrinkage=0.05


Tree=29
num_leaves=31
num_cat=0
split_feature=5 5 14 1 8 10 5 5 21 17 8 14 13 8 8 8 1 8 9 13 21 13 8 14 1 21 21 6 8 13
split_gain=168798 62194.9 42107.4 44328.2 26889.9 23106.8 18027.7 13109.4 12793 12670.2 11071 8026.26 7999.63 7080.46 5261.97 4930.5 4725.58 4660.23 4544.74 4075.29 3601.57 3299.87 2910.75 2759.32 2556.84 1931.13 1722.16 1569.58 1543.27 1537.28
threshold=1.5000000000000002 7.5000000000000009 1.0000000180025095e-35 1.0000000180025095e-35 1057.5000000000002 0.87750000000000006 3.5000000000000004 14.500000000000002 1.0000000180025095e-35 1.0000000180025095e-35 103.50000000000001 1.0000000180025095e-35 1.0000000180025095e-35 129.50000000000003 2437.0000000000005 181.50000000000003 1.0000000180025095e-35 1451.5000000000002 0.75550000000000017 1.0000000180025095e-35 1.0000000180025095e-35 1.0000000180025095e-35 527.50000000000011 1.0000000180025095e-35 1.0000000180025095e-35 1.0000000180025095e-35 1.0000000180025095e-35 2.5000000000000004 97.500000000000014 1.0000000180025095e-35
decision_type=2 2 2 2 2 2 2 2 2 2 2 2 2 2 2 2 2 2 2 2 2 2 2 2 2 2 2 2 2 2
left_child=2 6 3 4 9 12 11 23 -5 10 -1 16 13 -4 26 29 27 -15 -14 24 -11 22 -12 -3 -8 -24 -6 -2 -20 -7
right_child=1 7 5 8 14 15 19 -9 -10 20 21 -13 18 17 -16 -17 -18 -19 28 -21 -22 -23 25 -25 -26 -27 -28 -29 -30 -31
leaf_value=0.0019447603488039478 -0.07496791103023151 -0.730840861014733 0.15996250433949252 0.0019447603488039478 0.41489578398415844 -0.073274249857564991 -0.28859766502627482 -1.3382389464756339 -0.073274249857564991 0.18615592343363377 0.051129102430193078 -0.073274249857564991 0.60989274078171063 0.31316960099349062 0.56596544515969383 0.15996250433949252 -0.20803378899427216 0.72586553351131167 0.15996250433949252 -0.20803378899427216 0.11257573311633251 0.18615592343363377 0.18615592343363377 -0.45586254457665726 -0.42731485821879833 0.095671979561870624 0.23062953404613601 -0.15261587032543955 0.43421695545722383 0.056686388983646946
leaf_weight=4523 1144 253 918 2671 161 656 1173 77 3103 592 5050 1201 292 1065 173 247 1410 72 87 347 2580 437 288 171 515 1053 780 1561 63 109
leaf_count=4523 1144 253 918 2671 161 656 1173 77 3103 592 5050 1201 292 1065 173 247 1410 72 87 347 2580 437 288 171 515 1053 780 1561 63 109
internal_value=0 -0.206165 0.0596169 0.0332806 0.0771638 0.220038 -0.169125 -0.7426 -0.0732742 0.0589439 0.0342235 -0.120484 0.301582 0.258906 0.313368 0.0183433 -0.161338 0.342367 0.494881 -0.295584 0.147213 0.0779854 0.0686092 -0.620093 -0.332057 0.134002 0.264183 -0.119976 0.258541 -0.0465897
internal_weight=0 7852 24920 21411 15637 3509 7351 501 5774 14523 11351 5316 2497 2055 1114 1012 4115 1137 442 2035 3172 6828 6391 424 1688 1341 941 2705 150 765
internal_count=32772 7852 24920 21411 15637 3509 7351 501 5774 14523 11351 5316 2497 2055 1114 1012 4115 1137 442 2035 3172 6828 6391 424 1688 1341 941 2705 150 765
is_linear=0
shrinkage=0.05


Tree=30
num_leaves=31
num_cat=0
split_feature=8 6 8 6 1 21 1 10 21 8 6 17 10 21 21 13 8 6 19 7 13 8 10 8 1 10 1 8 7 6
split_gain=129622 50417.9 25237.5 23402 20197 15805.4 16798.3 12250.5 11140.1 9416.04 9354.01 8470.34 5427.02 5327.29 5145.07 4303.96 3226.05 2997.97 3727.95 2319.5 2124.05 2032.53 1837.76 1155.45 1025.89 976.909 1066.18 919.595 787.543 755.098
threshold=74.500000000000014 4.5000000000000009 1940.5000000000002 25.500000000000004 1.0000000180025095e-35 1.0000000180025095e-35 1.0000000180025095e-35 0.81850000000000012 1.0000000180025095e-35 588.50000000000011 10.500000000000002 1.0000000180025095e-35 0.96650000000000003 1.0000000180025095e-35 1.0000000180025095e-35 1.0000000180025095e-35 2867.5000000000005 2.5000000000000004 1.0000000180025095e-35 1.5000000000000002 1.0000000180025095e-35 19.500000000000004 0.77750000000000019 250.50000000000003 1.5000000000000002 0.77750000000000019 1.0000000180025095e-35 32.500000000000007 3.5000000000000004 15.500000000000002
decision_type=2 2 2 2 2 2 2 2 2 2 2 2 2 2 2 2 2 2 2 2 2 2 2 2 2 2 2 2 2 2
left_child=1 5 4 10 7 12 19 -2 -6 11 14 15 17 -4 20 23 24 -1 -19 -7 21 25 -12 -9 -15 -3 -27 -16 -21 -24
right_child=2 3 13 -5 8 6 -8 9 -10 -11 22 -13 -14 16 27 -17 -18 18 -20 28 -22 -23 29 -25 -26 26 -28 -29 -30 -31
leaf_value=-0.014512817795794953 0.25949679421300448 -0.22557118475708196 0.83676244424361945 -1.278430466076075 0.047607551207698488 -0.014512817795794953 -0.17655048432004322 0.047607551207698488 -0.014512817795794953 0.17789115890795998 -0.34061468395378952 0.12741371304093885 -0.17655048432004322 0.36922223523262931 -0.34061468395378952 0.12741371304093885 0.60623596622834364 -0.043525555253482562 -0.095531651057919081 -0.064883236084905913 -0.17655048432004322 -0.17655048432004322 -0.4372896324404596 0.08793163774073641 0.25949679421300448 -0.26115280535885826 -0.34061468395378952 -0.17655048432004322 -0.11361759693119733 -0.60101827973390332
leaf_weight=4074 627 86 71 54 2452 1335 1389 3948 2290 2029 53 3262 277 242 398 579 102 481 1885 1297 462 488 356 2740 61 781 305 75 468 165
leaf_count=4074 627 86 71 54 2452 1335 1389 3948 2290 2029 53 3262 277 242 398 579 102 481 1885 1297 462 488 356 2740 61 781 305 75 468 165
internal_value=0 -0.114581 0.0855556 -0.288707 0.0759424 -0.0643938 -0.136976 0.10776 -0.0125444 0.0962855 -0.269855 0.0769363 -0.0158212 0.443051 -0.228643 0.0476076 0.364667 -0.0145128 -0.0725383 -0.0506847 -0.19349 -0.236961 -0.452586 0.0476076 0.274826 -0.274592 -0.296734 -0.340615 -0.0891585 -0.494362
internal_weight=0 14429 18403 3223 17927 11206 4489 13185 4742 12558 3169 10529 6717 476 2595 7267 405 6440 2366 3100 2122 1660 574 6688 303 1172 1086 473 1765 521
internal_count=32832 14429 18403 3223 17927 11206 4489 13185 4742 12558 3169 10529 6717 476 2595 7267 405 6440 2366 3100 2122 1660 574 6688 303 1172 1086 473 1765 521
is_linear=0
shrinkage=0.05


Tree=31
num_leaves=31
num_cat=0
split_feature=5 5 14 1 8 21 19 17 5 8 5 6 8 6 21 13 14 13 21 8 22 8 1 13 21 1 13 5 8 21
split_gain=133309 43361.7 43005.8 46973.1 27372.1 19205.5 18204.7 15412.1 12622.5 10747.2 7867.43 7745 7009.94 6687.74 5383.63 4249.36 4055.96 4002.03 3779.77 3437.27 2900.62 2895.5 2517.63 2459.18 2423.67 2226.16 2166.19 1671.49 1619.63 1603.57
threshold=2.5000000000000004 9.5000000000000018 1.0000000180025095e-35 1.0000000180025095e-35 786.50000000000011 1.0000000180025095e-35 1.0000000180025095e-35 1.0000000180025095e-35 4.5000000000000009 101.50000000000001 14.500000000000002 1.5000000000000002 1940.5000000000002 2.5000000000000004 1.0000000180025095e-35 1.0000000180025095e-35 1.0000000180025095e-35 1.0000000180025095e-35 1.0000000180025095e-35 257.50000000000006 1.0000000180025095e-35 643.50000000000011 1.0000000180025095e-35 1.0000000180025095e-35 1.0000000180025095e-35 1.0000000180025095e-35 1.0000000180025095e-35 6.5000000000000009 20.500000000000004 1.0000000180025095e-35
decision_type=2 2 2 2 2 2 2 2 2 2 2 2 2 2 2 2 2 2 2 2 2 2 2 2 2 2 2 2 2 2
left_child=2 8 3 4 7 -5 11 9 16 -1 -3 17 18 14 25 -13 22 21 -6 -16 -19 -4 -2 -11 27 -8 -27 -10 -15 -9
right_child=1 10 6 5 12 -7 13 29 24 23 -12 15 -14 28 19 -17 -18 20 -20 -21 -22 -23 -24 -25 -26 26 -28 -29 -30 -31
leaf_value=-0.025032136403097441 -0.16039559618107835 -0.67401053627000873 0.13831541638942338 -0.025032136403097441 0.3194468471769889 -0.11255711666746676 0.76722887890950942 0.13898446227199771 -0.26254276359970447 0.046127825931579304 -1.3185603731431259 -0.019727357291718983 0.44688409998625345 -0.11255711666746676 0.26995624040141042 0.11528074430802063 -0.11255711666746676 0.27626108807449912 0.14764280180170114 0.50543432398674326 0.68024959151943531 0.34614499216356004 -0.25467782784064091 0.13898446227199771 -0.49360590529123788 0.27099340381100773 0.61046700844846247 -0.4025146747370289 0.19936261933958421 0.098236989155984847
leaf_weight=6363 1424 197 1527 3257 259 3449 144 584 680 5894 73 1031 341 52 224 347 716 244 1062 182 55 187 689 429 248 91 58 360 102 2595
leaf_count=6363 1424 197 1527 3257 259 3449 144 584 680 5894 73 1031 341 52 224 347 716 244 1062 182 55 187 689 429 248 91 58 360 102 2595
internal_value=0 -0.260529 0.0354149 0.00968591 0.0527445 -0.102809 0.182142 0.032482 -0.219613 0.00779366 -0.869083 0.129843 0.245487 0.388082 0.453446 0.0383102 -0.160058 0.192251 0.19201 0.328561 0.360539 0.161931 -0.201081 0.0550142 -0.349298 0.61808 0.453705 -0.312689 0.0864662 0.130836
internal_weight=0 4387 28477 24233 17527 6706 4244 15865 4117 12686 270 3391 1662 853 699 1378 2829 2013 1321 406 299 1714 2113 6323 1288 293 149 1040 154 3179
internal_count=32864 4387 28477 24233 17527 6706 4244 15865 4117 12686 270 3391 1662 853 699 1378 2829 2013 1321 406 299 1714 2113 6323 1288 293 149 1040 154 3179
is_linear=0
shrinkage=0.05


Tree=32
num_leaves=29
num_cat=0
split_feature=5 1 5 21 8 10 8 5 18 8 13 5 10 8 5 13 10 13 21 1 1 8 5 8 8 12 10 8
split_gain=120371 38324.3 35850.5 34997.2 27286.5 15203.1 14386 9323.58 5807.94 5584.46 5016.43 4595.2 2892.84 2867.11 2519.87 2188.84 1972.18 1726.62 1422.71 1117.18 579.258 510.134 265.511 244.061 167.832 153.995 109.226 52.9282
threshold=2.5000000000000004 1.0000000180025095e-35 9.5000000000000018 1.0000000180025095e-35 1330.5000000000002 0.82150000000000001 74.500000000000014 5.5000000000000009 1.0000000180025095e-35 588.50000000000011 1.0000000180025095e-35 16.500000000000004 0.83350000000000002 2283.5000000000005 3.5000000000000004 1.0000000180025095e-35 0.83350000000000002 1.0000000180025095e-35 1.0000000180025095e-35 1.0000000180025095e-35 1.0000000180025095e-35 27.500000000000004 7.5000000000000009 247.50000000000003 4.5000000000000009 0.37350000000000005 0.96450000000000002 413.50000000000006
decision_type=2 2 2 2 2 2 2 2 2 2 2 2 2 2 2 2 2 2 2 2 2 2 2 2 2 2 2 2
left_child=1 4 7 -3 5 -1 -7 10 9 15 12 17 -2 18 19 23 -9 -4 -6 26 22 -16 -18 -8 -21 -25 -14 -27
right_child=2 3 11 -5 13 6 8 16 -10 -11 -12 -13 14 -15 21 -17 20 -19 -20 24 -22 -23 -24 25 -26 27 -28 -29
leaf_value=0.20339082209233703 -0.10714940395540157 0.0061274085616153332 -0.76959679108778278 -0.10714940395540157 0.39632837353603451 0.0061274085616153332 0.043388668207626838 -0.26973588054382747 0.12527856486080666 0.12527856486080666 -0.10714940395540157 -1.2398894329688379 -0.16407453187647156 0.50421998979743399 -0.26973588054382747 0.08433361653421674 -0.33664373819121746 -0.50316913439923872 0.2465216916081038 -0.22352830387465181 -0.48610084986963936 -0.22352830387465181 -0.42465699061344497 0.08433361653421674 -0.19380141787556168 0.060758337160699408 -0.19380141787556168 0.075424430077936755
leaf_weight=965 203 4665 163 3629 103 6259 3845 85 3244 1561 501 51 977 224 978 538 333 60 508 199 210 188 152 87 284 1755 65 984
leaf_count=965 203 4665 163 3629 103 6259 3845 85 3244 1561 501 51 977 224 978 538 333 60 508 199 210 188 152 87 284 1755 65 984
internal_value=0 0.0326451 -0.246944 -0.057743 0.0699978 0.0578014 0.0471663 -0.209977 0.0806499 0.059009 -0.173697 -0.796361 -0.204821 0.34898 -0.221 0.0433887 -0.365775 -0.669961 0.288437 -0.177321 -0.403552 -0.269736 -0.363213 0.0433887 -0.223528 0.0717167 -0.164075 0.0665152
internal_weight=0 28367 4449 8294 20073 19238 18273 4175 12014 8770 3395 274 2894 835 2691 7209 780 223 611 1525 695 1166 485 6671 483 2826 1042 2739
internal_count=32816 28367 4449 8294 20073 19238 18273 4175 12014 8770 3395 274 2894 835 2691 7209 780 223 611 1525 695 1166 485 6671 483 2826 1042 2739
is_linear=0
shrinkage=0.05


Tree=33
num_leaves=31
num_cat=0
split_feature=5 5 14 1 8 10 5 17 14 9 1 10 8 19 1 10 8 7 8 6 5 5 5 8 5 22 8 8 6 4
split_gain=117163 47817.6 37869.3 36606 21236.4 20313.7 14078.2 11256.8 10096.1 8764.46 7004.68 6637.38 6209.72 5811.54 4980.89 4545.9 4478.25 4176.32 4058.02 3178.84 2618.4 2377.63 2131.26 1436.29 1402.3 1116.55 1082.52 1065.37 1020.82 1007.93
threshold=1.5000000000000002 5.5000000000000009 1.0000000180025095e-35 1.0000000180025095e-35 848.50000000000011 0.87550000000000006 16.500000000000004 1.0000000180025095e-35 1.0000000180025095e-35 0.45650000000000007 1.0000000180025095e-35 0.96350000000000013 216.50000000000003 1.0000000180025095e-35 1.0000000180025095e-35 0.49550000000000005 2647.5000000000005 1.5000000000000002 166.50000000000003 1.0000000180025095e-35 3.5000000000000004 9.5000000000000018 2.5000000000000004 1410.5000000000002 8.5000000000000018 1.0000000180025095e-35 458.50000000000006 27.500000000000004 2.5000000000000004 4.5000000000000009
decision_type=2 2 2 2 2 2 2 2 2 2 2 2 2 2 2 2 2 2 2 2 2 2 2 2 2 2 2 2 2 2
left_child=2 8 3 4 7 9 14 12 10 -4 20 -10 25 15 24 -11 23 -15 -5 -7 28 -16 29 -6 -3 -1 -17 -24 -2 -12
right_child=1 6 5 18 16 19 -8 -9 11 13 22 -13 -14 17 21 26 -18 -19 -20 -21 -22 -23 27 -25 -26 -27 -28 -29 -30 -31
leaf_value=0.035978704372812136 -0.061757571841473846 -0.30459236595920935 0.68432964541780672 -0.061757571841473846 0.17073709271352722 0.14427620968367016 -1.2750386047363282 0.12824943043340661 -0.061757571841473846 0.33342280751678732 -0.18077001748678276 -0.30459236595920935 0.070760806814061661 0.46937218184566493 -0.51864757367731074 0.14427620968367016 0.51596937291324141 0.23552542697716819 0.0011966019315626131 -0.038092518638146902 -0.18077001748678276 -0.85748676617844721 -0.30459236595920935 0.27903955393087337 -0.46673202842156941 0.0011966019315626131 0.24152685872522023 -0.24480123862814468 -0.12159825467720814 -0.24480123862814468
leaf_weight=361 1137 464 122 3249 807 243 50 3182 1225 473 843 352 4161 391 245 1010 135 327 2544 776 721 62 666 539 230 6579 193 161 1610 87
leaf_count=361 1137 464 122 3249 807 243 50 3182 1225 473 843 352 4161 391 245 1010 135 327 2544 776 721 62 666 539 230 6579 193 161 1610 87
internal_value=0 -0.172377 0.0488615 0.0239664 0.0641508 0.200428 -0.485513 0.0454173 -0.123672 0.276577 -0.160848 -0.0617576 0.0216271 0.254415 -0.439935 0.202338 0.244059 0.373735 -0.0617576 0.0119754 -0.119347 -0.610178 -0.242193 0.214979 -0.3608 0.0011966 0.149631 -0.301297 -0.0959214 -0.188306
internal_weight=0 7853 25092 21557 15764 3535 1051 14283 6802 2516 5225 1577 11101 2394 1001 1676 1481 718 5793 1019 3468 307 1757 1346 694 6940 1203 827 2747 930
internal_count=32945 7853 25092 21557 15764 3535 1051 14283 6802 2516 5225 1577 11101 2394 1001 1676 1481 718 5793 1019 3468 307 1757 1346 694 6940 1203 827 2747 930
is_linear=0
shrinkage=0.05


Tree=34
num_leaves=31
num_cat=0
split_feature=5 5 13 1 5 7 18 13 21 9 5 14 14 14 1 22 21 22 5 1 6 6 21 19 1 14 14 6 6 14
split_gain=104474 43687 31398.3 38401.5 15478 13548.2 11301.4 9395.21 8136.28 8083.61 7540.89 6933.85 6334.14 5516.32 4627.37 4281.3 3162.44 2542.38 3736.16 2087.67 2010.84 1591.04 1493.21 1429.19 1352.79 1252.38 1208.54 935.485 878.749 580.979
threshold=1.5000000000000002 6.5000000000000009 1.0000000180025095e-35 1.0000000180025095e-35 15.500000000000002 1.0000000180025095e-35 1.0000000180025095e-35 1.0000000180025095e-35 1.0000000180025095e-35 0.95750000000000013 3.5000000000000004 1.0000000180025095e-35 1.0000000180025095e-35 1.0000000180025095e-35 1.0000000180025095e-35 1.0000000180025095e-35 1.0000000180025095e-35 1.0000000180025095e-35 10.500000000000002 1.0000000180025095e-35 1.5000000000000002 1.0000000180025095e-35 1.0000000180025095e-35 1.0000000180025095e-35 1.0000000180025095e-35 1.0000000180025095e-35 1.0000000180025095e-35 2.5000000000000004 1.5000000000000002 1.0000000180025095e-35
decision_type=2 2 2 2 2 2 2 2 2 2 2 2 2 2 2 2 2 2 2 2 2 2 2 2 2 2 2 2 2 2
left_child=2 7 3 5 17 13 12 10 28 11 14 22 21 16 25 27 -1 -3 19 -19 -14 -7 -4 -15 -12 -2 -16 -13 -5 -26
